tree
version=v3
num_class=1
num_tree_per_iteration=1
label_index=0
max_feature_idx=311
objective=binary sigmoid:1
feature_names=session_position session_length clus skip_1_sk2True_mean skip_2_sk2True_mean skip_3_sk2True_mean not_skipped_sk2True_mean hist_user_behavior_is_shuffle_sk2True_mean premium_sk2True_mean hist_user_behavior_reason_end_backbtn_sk2True_mean hist_user_behavior_reason_end_clickrow_sk2True_mean hist_user_behavior_reason_end_endplay_sk2True_mean hist_user_behavior_reason_end_fwdbtn_sk2True_mean hist_user_behavior_reason_end_logout_sk2True_mean hist_user_behavior_reason_end_popup_sk2True_mean hist_user_behavior_reason_end_remote_sk2True_mean hist_user_behavior_reason_end_trackdone_sk2True_mean hist_user_behavior_reason_start_appload_sk2True_mean hist_user_behavior_reason_start_backbtn_sk2True_mean hist_user_behavior_reason_start_clickrow_sk2True_mean hist_user_behavior_reason_start_endplay_sk2True_mean hist_user_behavior_reason_start_fwdbtn_sk2True_mean hist_user_behavior_reason_start_playbtn_sk2True_mean hist_user_behavior_reason_start_popup_sk2True_mean hist_user_behavior_reason_start_remote_sk2True_mean hist_user_behavior_reason_start_trackdone_sk2True_mean hist_user_behavior_reason_start_trackerror_sk2True_mean context_type_catalog_sk2True_mean context_type_charts_sk2True_mean context_type_editorial_playlist_sk2True_mean context_type_personalized_playlist_sk2True_mean context_type_radio_sk2True_mean context_type_user_collection_sk2True_mean session_position_sk2True_mean session_position_sk2True_std session_position_sk2True_median session_length_sk2True_mean session_length_sk2True_std session_length_sk2True_median context_switch_sk2True_mean context_switch_sk2True_std context_switch_sk2True_median no_pause_before_play_sk2True_mean no_pause_before_play_sk2True_std no_pause_before_play_sk2True_median short_pause_before_play_sk2True_mean short_pause_before_play_sk2True_std short_pause_before_play_sk2True_median long_pause_before_play_sk2True_mean long_pause_before_play_sk2True_std long_pause_before_play_sk2True_median hist_user_behavior_n_seekfwd_sk2True_mean hist_user_behavior_n_seekfwd_sk2True_std hist_user_behavior_n_seekfwd_sk2True_median hist_user_behavior_n_seekback_sk2True_mean hist_user_behavior_n_seekback_sk2True_std hist_user_behavior_n_seekback_sk2True_median hour_of_day_sk2True_mean hour_of_day_sk2True_std hour_of_day_sk2True_median duration_sk2True_mean duration_sk2True_std duration_sk2True_median release_year_sk2True_mean release_year_sk2True_std release_year_sk2True_median us_popularity_estimate_sk2True_mean us_popularity_estimate_sk2True_std us_popularity_estimate_sk2True_median acousticness_sk2True_mean acousticness_sk2True_std acousticness_sk2True_median beat_strength_sk2True_mean beat_strength_sk2True_std beat_strength_sk2True_median bounciness_sk2True_mean bounciness_sk2True_std bounciness_sk2True_median danceability_sk2True_mean danceability_sk2True_std danceability_sk2True_median dyn_range_mean_sk2True_mean dyn_range_mean_sk2True_std dyn_range_mean_sk2True_median energy_sk2True_mean energy_sk2True_std energy_sk2True_median flatness_sk2True_mean flatness_sk2True_std flatness_sk2True_median instrumentalness_sk2True_mean instrumentalness_sk2True_std instrumentalness_sk2True_median liveness_sk2True_mean liveness_sk2True_std liveness_sk2True_median loudness_sk2True_mean loudness_sk2True_std loudness_sk2True_median mechanism_sk2True_mean mechanism_sk2True_std mechanism_sk2True_median organism_sk2True_mean organism_sk2True_std organism_sk2True_median speechiness_sk2True_mean speechiness_sk2True_std speechiness_sk2True_median tempo_sk2True_mean tempo_sk2True_std tempo_sk2True_median valence_sk2True_mean valence_sk2True_std valence_sk2True_median acoustic_vector_0_sk2True_mean acoustic_vector_0_sk2True_std acoustic_vector_0_sk2True_median acoustic_vector_1_sk2True_mean acoustic_vector_1_sk2True_std acoustic_vector_1_sk2True_median acoustic_vector_2_sk2True_mean acoustic_vector_2_sk2True_std acoustic_vector_2_sk2True_median acoustic_vector_3_sk2True_mean acoustic_vector_3_sk2True_std acoustic_vector_3_sk2True_median acoustic_vector_4_sk2True_mean acoustic_vector_4_sk2True_std acoustic_vector_4_sk2True_median acoustic_vector_5_sk2True_mean acoustic_vector_5_sk2True_std acoustic_vector_5_sk2True_median acoustic_vector_6_sk2True_mean acoustic_vector_6_sk2True_std acoustic_vector_6_sk2True_median acoustic_vector_7_sk2True_mean acoustic_vector_7_sk2True_std acoustic_vector_7_sk2True_median skip_1_sk2False_mean skip_2_sk2False_mean skip_3_sk2False_mean not_skipped_sk2False_mean hist_user_behavior_is_shuffle_sk2False_mean premium_sk2False_mean hist_user_behavior_reason_end_backbtn_sk2False_mean hist_user_behavior_reason_end_clickrow_sk2False_mean hist_user_behavior_reason_end_endplay_sk2False_mean hist_user_behavior_reason_end_fwdbtn_sk2False_mean hist_user_behavior_reason_end_logout_sk2False_mean hist_user_behavior_reason_end_popup_sk2False_mean hist_user_behavior_reason_end_remote_sk2False_mean hist_user_behavior_reason_end_trackdone_sk2False_mean hist_user_behavior_reason_start_appload_sk2False_mean hist_user_behavior_reason_start_backbtn_sk2False_mean hist_user_behavior_reason_start_clickrow_sk2False_mean hist_user_behavior_reason_start_endplay_sk2False_mean hist_user_behavior_reason_start_fwdbtn_sk2False_mean hist_user_behavior_reason_start_playbtn_sk2False_mean hist_user_behavior_reason_start_popup_sk2False_mean hist_user_behavior_reason_start_remote_sk2False_mean hist_user_behavior_reason_start_trackdone_sk2False_mean hist_user_behavior_reason_start_trackerror_sk2False_mean context_type_catalog_sk2False_mean context_type_charts_sk2False_mean context_type_editorial_playlist_sk2False_mean context_type_personalized_playlist_sk2False_mean context_type_radio_sk2False_mean context_type_user_collection_sk2False_mean session_position_sk2False_mean session_position_sk2False_std session_position_sk2False_median session_length_sk2False_mean session_length_sk2False_std session_length_sk2False_median context_switch_sk2False_mean context_switch_sk2False_std context_switch_sk2False_median no_pause_before_play_sk2False_mean no_pause_before_play_sk2False_std no_pause_before_play_sk2False_median short_pause_before_play_sk2False_mean short_pause_before_play_sk2False_std short_pause_before_play_sk2False_median long_pause_before_play_sk2False_mean long_pause_before_play_sk2False_std long_pause_before_play_sk2False_median hist_user_behavior_n_seekfwd_sk2False_mean hist_user_behavior_n_seekfwd_sk2False_std hist_user_behavior_n_seekfwd_sk2False_median hist_user_behavior_n_seekback_sk2False_mean hist_user_behavior_n_seekback_sk2False_std hist_user_behavior_n_seekback_sk2False_median hour_of_day_sk2False_mean hour_of_day_sk2False_std hour_of_day_sk2False_median duration_sk2False_mean duration_sk2False_std duration_sk2False_median release_year_sk2False_mean release_year_sk2False_std release_year_sk2False_median us_popularity_estimate_sk2False_mean us_popularity_estimate_sk2False_std us_popularity_estimate_sk2False_median acousticness_sk2False_mean acousticness_sk2False_std acousticness_sk2False_median beat_strength_sk2False_mean beat_strength_sk2False_std beat_strength_sk2False_median bounciness_sk2False_mean bounciness_sk2False_std bounciness_sk2False_median danceability_sk2False_mean danceability_sk2False_std danceability_sk2False_median dyn_range_mean_sk2False_mean dyn_range_mean_sk2False_std dyn_range_mean_sk2False_median energy_sk2False_mean energy_sk2False_std energy_sk2False_median flatness_sk2False_mean flatness_sk2False_std flatness_sk2False_median instrumentalness_sk2False_mean instrumentalness_sk2False_std instrumentalness_sk2False_median liveness_sk2False_mean liveness_sk2False_std liveness_sk2False_median loudness_sk2False_mean loudness_sk2False_std loudness_sk2False_median mechanism_sk2False_mean mechanism_sk2False_std mechanism_sk2False_median organism_sk2False_mean organism_sk2False_std organism_sk2False_median speechiness_sk2False_mean speechiness_sk2False_std speechiness_sk2False_median tempo_sk2False_mean tempo_sk2False_std tempo_sk2False_median valence_sk2False_mean valence_sk2False_std valence_sk2False_median acoustic_vector_0_sk2False_mean acoustic_vector_0_sk2False_std acoustic_vector_0_sk2False_median acoustic_vector_1_sk2False_mean acoustic_vector_1_sk2False_std acoustic_vector_1_sk2False_median acoustic_vector_2_sk2False_mean acoustic_vector_2_sk2False_std acoustic_vector_2_sk2False_median acoustic_vector_3_sk2False_mean acoustic_vector_3_sk2False_std acoustic_vector_3_sk2False_median acoustic_vector_4_sk2False_mean acoustic_vector_4_sk2False_std acoustic_vector_4_sk2False_median acoustic_vector_5_sk2False_mean acoustic_vector_5_sk2False_std acoustic_vector_5_sk2False_median acoustic_vector_6_sk2False_mean acoustic_vector_6_sk2False_std acoustic_vector_6_sk2False_median acoustic_vector_7_sk2False_mean acoustic_vector_7_sk2False_std acoustic_vector_7_sk2False_median CanbDist300 CosSim300 LinCorr300 ManhDist300 HammDist300 SpearCorr300 KendCorr300 ChebDist BrayDist hist_user_behavior_reason_end_appload_sk2True_mean hist_user_behavior_reason_end_appload_sk2False_mean hist_user_behavior_reason_start_clickside_sk2True_mean hist_user_behavior_reason_start_clickside_sk2False_mean duration release_year us_popularity_estimate acousticness beat_strength bounciness danceability dyn_range_mean energy flatness instrumentalness liveness loudness mechanism organism speechiness tempo valence acoustic_vector_0 acoustic_vector_1 acoustic_vector_2 acoustic_vector_3 acoustic_vector_4 acoustic_vector_5 acoustic_vector_6 acoustic_vector_7
feature_infos=[6:20] [10:20] [0:299] [0:1] [1:1] [0:1] none [0:1] [0:1] [0:1] [0:1] [0:1] [0:1] [0:1] [0:0] [0:1] [0:1] [0:1] [0:1] [0:1] [0:1] [0:1] [0:1] [0:0] [0:1] [0:1] [0:1] [0:1] [0:1] [0:1] [0:1] [0:1] [0:1] [1:10] [0.70710676908493042:6.3639612197875977] [1:10] [10:20] [0:0] [10:20] [0:1] [0:0.70710676908493042] [0:1] [0:1] [0:0.70710676908493042] [0:1] [0:1] [0:0.70710676908493042] [0:1] [0:1] [0:0.70710676908493042] [0:1] [0:34.5] [0:48.790367126464844] [0:34.5] [0:76.666664123535156] [0:132.79055786132812] [0:14] [0:23] [0:16.263456344604492] [0:23] [30.024490356445312:1753.7733154296875] [0:1134.0208740234375] [30.024490356445312:1753.7733154296875] [1950:2018] [0:47.376155853271484] [1950:2018] [90.009819030761719:100] [0:7.0598359107971191] [90.009819030761719:100] [0:0.99579644203186035] [0:0.7023082971572876] [0:0.99579644203186035] [0:0.96655815839767456] [0:0.59131968021392822] [0:0.96655815839767456] [0:0.96575027704238892] [0:0.63892179727554321] [0:0.96575027704238892] [0:0.97977501153945923] [0:0.55561649799346924] [0:0.97977501153945923] [1.7259999513626099:26.173732757568359] [0:13.306338310241699] [1.7259999513626099:26.173732757568359] [0:0.99990242719650269] [0:0.69628560543060303] [0:0.99990242719650269] [0.22861041128635406:1.1063694953918457] [0:0.59571695327758789] [0.22861041128635406:1.1063694953918457] [0:0.99999147653579712] [0:0.70359569787979126] [0:0.99999147653579712] [0:0.99601298570632935] [0:0.66552674770355225] [0:0.99601298570632935] [-60:0.71200001239776611] [0:33.567771911621094] [-60:0.71200001239776611] [0:1] [0:0.69132316112518311] [0:1] [0:0.95891344547271729] [0:0.67305600643157959] [0:0.95891344547271729] [0:0.96620726585388184] [0:0.65930038690567017] [0:0.96620726585388184] [0:219.76499938964844] [0:127.26578521728516] [0:219.76499938964844] [0:0.99344629049301147] [0:0.68550139665603638] [0:0.99344629049301147] [-1.0572860240936279:0.92088133096694946] [0:1.2449308633804321] [-1.0687013864517212:0.94329220056533813] [-1.0993169546127319:0.77882301807403564] [0:1.1205037832260132] [-1.0993169546127319:0.77882301807403564] [-0.75661647319793701:0.59079384803771973] [0:0.7439807653427124] [-0.77066552639007568:0.59577709436416626] [-0.80913615226745605:1.0834590196609497] [0:1.001829981803894] [-0.80913615226745605:1.0834590196609497] [-0.99321901798248291:0.87334597110748291] [0:1.0555402040481567] [-0.99321901798248291:0.87334597110748291] [-0.96197116374969482:0.39165514707565308] [0:0.72659921646118164] [-0.97779560089111328:0.39165514707565308] [-0.70535951852798462:0.96243232488632202] [0:1.0269829034805298] [-0.70781809091567993:0.96243232488632202] [-0.94085472822189331:1.0866696834564209] [0:1.0728907585144043] [-0.94085472822189331:1.0866696834564209] none none [0:1] [0:1] [0:1] [0:1] [0:1] [0:1] [0:1] [0:1] [0:1] [0:0] [0:1] [0:1] [0:1] [0:1] [0:1] [0:1] [0:1] [0:1] [0:0] [0:1] [0:1] [0:1] [0:1] [0:1] [0:1] [0:1] [0:1] [0:1] [1:10] [0.70710676908493042:6.3639612197875977] [1:10] [10:20] [0:0] [10:20] [0:1] [0:0.70710676908493042] [0:1] [0:1] [0:0.70710676908493042] [0:1] [0:1] [0:0.70710676908493042] [0:1] [0:1] [0:0.70710676908493042] [0:1] [0:37] [0:43.826930999755859] [0:37] [0:111] [0:62.692371368408203] [0:111] [0:23] [0:16.263456344604492] [0:23] [35.240001678466797:1787.760986328125] [0:1122.1885986328125] [31.649980545043945:1787.760986328125] [1950:2018] [0:47.376155853271484] [1950:2018] [90.018898010253906:100] [0:7.0586380958557129] [90.018898010253906:100] [0:0.99579644203186035] [0:0.70178252458572388] [0:0.99579644203186035] [0:0.92908728122711182] [0:0.65671205520629883] [0:0.92908728122711182] [0:0.94767457246780396] [0:0.66762363910675049] [0:0.94767457246780396] [0:0.97915464639663696] [0:0.64649760723114014] [0:0.97977501153945923] [2.0948643684387207:23.847694396972656] [0:10.96624755859375] [2.0948643684387207:23.847694396972656] [0:0.99987661838531494] [0:0.67494022846221924] [0:0.99987661838531494] [0.19648824632167816:1.1032134294509888] [0:0.57186406850814819] [0.19648824632167816:1.1032134294509888] [0:0.99997603893280029] [0:0.70191413164138794] [0:0.99997609853744507] [0:0.99066603183746338] [0:0.66589337587356567] [0:0.99239468574523926] [-59.614002227783203:0.57599997520446777] [0:30.862724304199219] [-59.613998413085938:0.7355000376701355] [0:1] [0:0.62343013286590576] [0:1] [0:0.9611857533454895] [0:0.65890592336654663] [0:0.9611857533454895] [0:0.96620726585388184] [0:0.64820563793182373] [0:0.96620726585388184] [0:222.13299560546875] [0:98.130867004394531] [0:222.13299560546875] [0:0.98652076721191406] [0:0.65915584564208984] [0:0.98652076721191406] [-1.0681779384613037:0.9050104022026062] [0:1.2609983682632446] [-1.0681779384613037:0.90523672103881836] [-1.0920689105987549:0.773395836353302] [0:0.99719125032424927] [-1.0920689105987549:0.773395836353302] [-0.77133834362030029:0.58978408575057983] [0:0.70599484443664551] [-0.77578061819076538:0.58978408575057983] [-0.80362218618392944:1.0401394367218018] [0:1.0752013921737671] [-0.80472713708877563:1.0401394367218018] [-0.9831358790397644:0.8829386830329895] [0:1.0612708330154419] [-0.9831358790397644:0.8829386830329895] [-0.96107643842697144:0.35934033989906311] [0:0.76015943288803101] [-0.97295820713043213:0.36032301187515259] [-0.74367517232894897:0.95667183399200439] [0:1.0188872814178467] [-0.74367517232894897:0.96223020553588867] [-0.94934076070785522:1.0854464769363403] [0:1.024578332901001] [-0.94934076070785522:1.0861117839813232] [-0.031977120786905289:0.032301537692546844] [-9:9] [-163.00857543945312:228.18388366699219] [-0.034491047263145447:0.034150343388319016] [-0.034421220421791077:0.033340569585561752] [-61.526481628417969:39.554378509521484] [-94.770614624023438:61.568244934082031] [-0.04487176239490509:0.04874797910451889] [-0.031809747219085693:0.032736282795667648] [0:0] [0:0.125] [0:1] [0:0] [30.106670379638672:1787.760986328125] [1950:2018] [90.009437561035156:100] [0:0.99579644203186035] [0:0.96379566192626953] [0:0.96518433094024658] [0:0.98466408252716064] [0:30.288236618041992] [0:0.99998414516448975] [0:1.1128767728805542] [0:0.99997609853744507] [0:0.99913716316223145] [-60:1.0870000123977661] [0:1] [0:0.9617273211479187] [0:0.96963071823120117] [0:236.79899597167969] [0:0.9990965723991394] [-1.1225453615188599:0.93035405874252319] [-1.1414105892181396:0.8055989146232605] [-0.8040916919708252:0.60351318120956421] [-0.83187228441238403:1.0467072725296021] [-1.0279282331466675:0.89576900005340576] [-0.97418439388275146:0.39833143353462219] [-0.74163943529129028:0.985207200050354] [-0.96405154466629028:1.1671453714370728]
tree_sizes=2892 2905 2924 2942 2919 2930 2941 2924 2953 2945 2941 2959 2947 2929 2953 2939 2973 2968 2940 2960 2984 2955 2940 2948 2959 2960 2989 2970 2977 2940 2964 2947 2947 2962 2956 2928 2963 2922 2961 2982 2952 2963 2976 2983 2977 2983 2955 2942 2965 2964 2981 2928 3000 2944 3002 2970 2966 2966 2971 2954 2982 3006 2979 2975 2962 2952 2952 2938 2997 2969 2983 2940 2997 2986 2975 2961 2979 2980 2937 2986 2986 2918 2945 2950 2974 2957 2994 2987 2953 2992 2956 2978 2998 2992 2934 2960 2972 2972 2977 2992 2903 2987 2963 2947 2969 2979 3004 2932 2957 2940 2991 2978 2998 2966 2961 2951 2954 2980 2955 2918 3000 2991 2967 3007 2956 2951 2923 3000 3009 2995 2947 2978 2990 2946 2964 2967 2995 2984 3022 2975 2967 2989 2968 2973 3003 2985 2995 3007 2990 2972 2900 2957 3006 2972 3017 2949 2986 2973 2999 2964 2977 3004 2969 2988 2933 2905 2938 2926 2931 2971 2988 2985 2941 2928 2960 2921 3008 2957 2967 2934 2977 2986 2934 2948 3011 2986 2951 2965 2977 2918 2956 3000 2992 2973 2933 2916 2980 2941 2966 2965 2935 2961 2968 2985 2969 3000 2939 2975 2944 2974 2958 2919 2955 2976 2991 2967 3006 2976 2979 2937 2943 2974 2993 2949 2971 2941 2975 2967 2924 2898 2955 2912 2958 2983 2943 2908 2951 2972 2975 2924 2928 2959 2965 2949 2991 2925 2925 3006 2983 2989 2871 2978 2938 2930 2918 2976 2929 2959 3012 2990 2944 2917 2911 2990 2974 2934 2957 2978 2975 2954 2932 2968 2953 3002 2990 2965 2946 2913 2953 2985 2971 2919 2991 2922 2981 2934 2903 2918 2953 2992 2903 2905 2999 2953 2991 2914 2934 2973 2952 2918 2927 2941 2941 2867 2958 2980 2907 2869 2973 2975 2969 2923 2846 2990 2932 3003 2943 2869 2958 2969 2948 2944 2971 2929 2863 2925 3005 2932 2977 2829 2977 2940 2950 2976 2884 2985 2973 2966 2942 2990 2903 2947 2956 2936 2958 2942 2961 2974 2924 2947 2933 2902 2976 2954 2914 2886 2925 2923 2912 2893 2935 2964 2991 2953 2867 2835 2894 2870 2922 2930 2851 2878 2968 2954 2912 2942 2893 2867 2832 2921 2923 2979 2921 2940 2958 2902 2863 2951 2897 2948 2995 2908 2885 2902 2897 2935 2867 2887 2899 2917 2880 2841 2841 2837 2944 2901 2834 2991 2838 3000 2896 2930 2876 2957 2908 2892 2854 2914 2867 2864 2914 2963 2965 2890 2961 2861 2893 2915 2820 2908 2882 2861 2985 2837 2907 2855 2868 2928 2914 2940 2972 2932 2928 2961 2930 2905 2970 2927 2926 2934 2902 2986 2954 2937 2946 2916 2899 2874 2939 2986 2868 2881 2850 2832 2923 2953 2880 2871 2936 2960 2832 2914 2889 2908 2943 2933 2900 2882 2822 2914 2911 2875 2977 2966 2958 2859 2947 2894 2971 2964 2832 2945 2946 2950 2959 2914 2954 2902 2912 2881 2924 2838 2957 2878 2956 2905 2940 2894 2836 2898 2839 2835 2917 2967 2838 2881 2955 2988 2943 2935 2947 2880 2903 2916 2926 2837 2953 2964 2936 2888 2951 2900 2963 2922 2951 2837 2893 2861 2892 2820 2936 2936 2933 2957 2899 2934 2881 2967 2957 2944 2987 2860 2852 2844 2980 2884 2920 2868 2919 2910 2875 2984 2976 2839 2994 2862 2955 2823 2873 2840 2958 2943 2838 2877 2882 2921 2884 2924 2903 2941 2819 2902 2939 2879 2963 2931 2986 2935 2917 2879 2922 2921 2948 2948 2875 2866 2838 2857 2867 2856 2919 2845 2906 2868 2929 2891 2941 2958 2838 2879 2911 2894 2906 2905 2941 2946 2922 2942 2921 2815 2886 2923 2987 2860 2874 2885 2907 2837 2866 2953 2866 2963 2922 2881 2850 2912 2892 2839 2859 2844 2914 2858 2870 2891 2960 2918 2843 2915 2859 2887 2971 2904 2841 2835 2961 2894 2852 2886 2990 2962 2862 2892 2901 2844 2856 2875 2863 2935 2956 2895 2838 2891 2930 3003 2913 2858 2924 2943 2902 2872 2839 2848 2995 2897 2864 2930 2931 2918 2886 2841 2943 3015 2924 2840 2967 2937 2970 2956 2871 2958 2933 2856 2956 2877 2937 2925 2964 2958 2877 2852 2959 2884 2853 2870 2955 2844 2825 2942 3008 3005 2965 2876 2844 2852 2862 2869 2897 2883 2956 2848 2922 2903 2910 2902 2827 2939 2849 2837 2898 2871 2927 2876 2958 2959 2866 2874 2925 2957 2938 2917 2886 2882 2930 2903 2858 2975 2835 2900 2863 2841 2860 2895 2859 2928 2845 2960 2879 2899 2901 2911 2915 2864 2841 2862 2920 2890 2882 2895 2842 2851 2947 2913 2986 2959 2929 2932 2984 2895 2882 2862 2934 2923 2820 2843 2894 2927 2964 2868 2880 2858 2920 2880 2828 2962 2862 2827 2850 2890 2860 2890 2926 2888 2848 2891 2939 2981 2871 2891 2963 2894 2890 2924 2975 2904 2895 2955 2843 2926 2943 2911 2861 2896 2920 2820 2935 2901 2906 2897 2921 2919 2822 2923 2857 2872 2945 2870 2892 2876 2911 2954 2922

Tree=0
num_leaves=25
num_cat=0
split_feature=34 33 170 280 33 151 181 151 12 21 43 34 12 33 33 151 33 33 33 33 33 33 33 34
split_gain=328574 89309.3 60151.1 50853.1 36585.1 31505.1 16218.1 13905.9 12898.9 10012.8 8515.47 7155.99 5702.26 5629.83 4472.87 4367.52 4185.34 3922.32 3899.68 3554.74 3437.08 3311.32 3278 2862.15
threshold=1.5543320178985598 4.6904761791229257 2.7500000000000004 -0.0036234343424439426 6.3095238208770761 0.73214286565780651 0.56253641843795787 0.5634920895099641 0.84523808956146251 0.52777779102325451 0.64222851395607006 0.85355338454246532 0.23611111193895343 8.291666507720949 4.4642856121063241 0.23611111193895343 2.1666666269302373 9.2500000000000018 3.5499999523162846 3.5499999523162846 5.0555555820465097 5.5277776718139657 6.3541667461395273 2.7996551990509038
decision_type=10 2 2 2 2 2 8 2 2 2 8 10 2 2 2 2 2 2 2 2 2 2 2 10
left_child=2 6 11 8 5 -4 7 -2 21 -5 13 14 -7 -6 -1 -10 -14 -12 -8 -9 -17 23 -11 -3
right_child=1 3 4 9 10 12 18 19 15 22 17 -13 16 -15 -16 20 -18 -19 -20 -21 -22 -23 -24 -25
leaf_value=-0.033043840027137325 0.094388668698144176 0.10682963888684921 0.0025020913743563356 0.079488642365451168 0.032986890761670766 -0.056321201020558695 0.076724771470473241 -0.029558439938579331 0.18439625602078874 0.11839663581954604 -0.028183680387984925 0.11329948225403 -0.14295852236085366 0.12705161819433258 0.067995548837846892 0.18525929067139918 -0.090514647355416269 0.064114990790674092 0.14123273241254108 0.027366274743042179 0.2399415134081137 0.18545490300560497 0.17009255660465139 0.17140745921067818
leaf_weight=13669.319326639175 65822.581112414598 29730.530831903219 115851.70418789983 106671.5412645191 28124.294862210751 58199.190465539694 32810.194462195039 38708.333315327764 54915.375232934952 55879.758709728718 37852.895844519138 76145.514742538333 58203.597669556737 29158.711098819971 35355.406683743 30279.643421426415 83158.566336736083 14262.785280689597 59005.555198207498 68118.514276683331 177313.81064836681 89967.665938302875 54529.130231589079 32131.359894990921
leaf_count=84615 479122 226606 811655 826167 215203 418832 215159 282007 426940 429986 288570 496459 413378 227997 223487 232167 600886 111727 421613 515382 1384447 705647 424588 251261
internal_value=0.0843536 0.140424 -0.00686596 0.171074 -0.0337931 -0.0597177 0.0672443 0.0401559 0.201886 0.112263 0.0409513 0.0845215 -0.0958383 0.0808686 0.0398232 0.222014 -0.112108 -0.0029238 0.118181 0.0067398 0.231966 0.167086 0.143928 0.140372
internal_weight=0 895884 549982 631419 424812 315413 264465 172649 414338 217080 109399 125170 199561 57283 49024.7 262509 141362 52115.7 91815.7 106827 207593 151830 110409 61861.9
internal_count=10713901 6821092 3892809 4907809 3088248 2244751 1913283 1276511 3227068 1680741 843497 804561 1433096 443200 308102 2043554 1014264 400297 636772 797389 1616614 1183514 854574 477867
is_linear=0
shrinkage=1


Tree=1
num_leaves=25
num_cat=0
split_feature=273 33 33 141 33 3 0 21 168 11 147 1 280 147 0 33 0 1 33 40 33 33 141 168
split_gain=239737 81729.6 54151.6 21099.9 18162.4 17470.2 15407 14752.2 9542.77 7642.2 7185.81 6934.57 6357.7 5492.5 5031.08 4872.8 3512.51 4380.66 3255.32 3207.4 2998.5 2942.2 2891.78 2865.49
threshold=0.0014244579360820355 4.5357143878936776 4.0714285373687753 0.6904762089252473 3.1000000238418584 0.13392857462167743 8.5000000000000018 0.61250001192092907 4.7321429252624521 0.78888890147209179 0.15476191043853763 19.500000000000004 -0.010928346309810875 0.30952382087707525 8.5000000000000018 4.0714285373687753 14.500000000000002 19.500000000000004 5.5277776718139657 0.50819888710975658 6.0625000000000009 5.2111110687255868 0.30952382087707525 2.1666666269302373
decision_type=2 2 2 2 2 2 2 2 2 2 2 2 2 2 2 2 2 2 2 8 2 2 2 2
left_child=1 4 3 -2 13 -4 23 18 11 19 -10 14 16 -1 -7 -8 21 -18 -3 -5 -14 -9 -19 -6
right_child=2 7 5 9 6 8 15 12 10 -11 -12 -13 20 -15 -16 -17 17 22 -20 -21 -22 -23 -24 -25
leaf_value=-0.10987525837783005 -0.066032643924153325 0.023881508527200401 -0.098103733182561062 -0.14275008978412695 0.097717962884263695 0.04139868467101214 -0.040701414819028836 0.094847425911603681 -0.078696052687418458 -0.075065959359461878 -0.0095189601106264003 0.047626514837125926 0.058836651228618135 -0.017493565406928157 -0.035659732118883319 0.015618844314845146 -0.015860093762162613 0.063833572900363858 0.068497023716235325 -0.18762465778478815 0.10286589591817576 0.14706881486035325 0.12350198393493651 0.032290445490335336
leaf_weight=45059.969845809042 104948.09220410883 63926.301617272198 70088.894012644887 72073.177624762058 38063.860445186496 25804.610811799765 83107.332841902971 31313.957352988422 68117.485922701657 24920.093601554632 67034.306657746434 64765.988754846156 73542.315448880196 21337.369710206985 72974.496078439057 59176.268482282758 7020.1361768841743 25210.805402688682 86703.167856603861 71280.141605749726 66065.926007755101 107989.55513247102 66428.208579987288 24922.796420961618
leaf_count=299923 728606 488728 519576 529289 185751 120578 670643 184479 531980 180029 523345 505412 557001 138093 571481 465989 81003 275087 680890 506405 519790 609323 727295 113205
internal_value=0 0.0548642 -0.0682034 -0.118816 -0.0119936 -0.0307063 0.0100646 0.089251 -0.0148916 -0.151735 -0.0443847 0.0094812 0.105084 -0.0801876 -0.0155293 -0.0172776 0.119993 0.0983383 0.0495624 -0.165063 0.0796723 0.13533 0.107087 0.0718294
internal_weight=0 799868 642007 273222 271668 368786 205270 528200 298697 168273 135152 163545 377571 66397.3 98779.1 142284 237963 98659.2 150629 143353 139608 139304 91639 62986.7
internal_count=10713901 5997200 4716701 1944329 1873604 2772372 1435588 4123596 2252796 1215723 1055325 1197471 2953978 438016 692059 1136632 1877187 1083385 1169618 1035694 1076791 793802 1002382 298956
is_linear=0
shrinkage=0.15


Tree=2
num_leaves=25
num_cat=0
split_feature=34 33 168 151 277 21 33 33 0 151 169 169 0 0 34 0 151 151 151 1 160 169 280 0
split_gain=185257 48152.9 39651.6 25533.8 24025.3 15750.5 10349.9 10290.6 10017.8 8417.19 6620.09 6226.42 7325.84 6095.46 6576.32 5414.33 5385.46 4442.19 4231.49 3818.57 3749.74 3346.93 2813.59 2726.15
threshold=1.5543320178985598 5.0555555820465097 2.5833333730697636 0.86607143282890331 -0.0046520766336470834 0.5634920895099641 8.291666507720949 8.291666507720949 9.5000000000000018 0.61250001192092907 2.6333461999893193 2.8430825471878056 12.500000000000002 9.5000000000000018 2.3093898296356206 9.5000000000000018 0.23611111193895343 0.61250001192092907 0.6904762089252473 19.500000000000004 0.41428571939468389 2.9134328365325932 0.0012690959847532215 12.500000000000002
decision_type=10 2 2 2 2 2 2 2 2 2 10 10 2 2 10 2 2 2 2 2 2 10 2 2
left_child=2 5 8 7 11 15 20 9 -1 -4 23 12 -3 -7 -15 -2 -14 -12 -17 -18 -5 -8 -16 -6
right_child=1 4 3 6 10 13 21 -9 -10 -11 17 -13 16 14 22 18 19 -19 -20 -21 -22 -23 -24 -25
leaf_value=0.047560558463599141 0.010190228318208866 0.14353901419462947 -0.038983512496387658 -0.074692701844995116 0.094660784449060675 0.077765323987178461 -0.00052049471133688591 0.017715084092071589 -0.060031700621460446 -0.094400138098470088 0.032984333788783717 0.061738668968747426 0.037767140908519799 -0.020488299067023343 0.054521362178650203 -0.021920092753537516 0.015121537871389987 -0.026735419033374543 -0.078551795733789176 0.1125560438210902 -0.15658861593723211 -0.15076180394523203 -0.016144282172195837 0.039476062707598646
leaf_weight=70832.632060706615 45098.78194899857 87071.945792406797 107517.19888153672 13926.819224178791 34264.707151502371 44362.731394559145 15496.93735267967 33502.112472377717 26852.735568255186 144620.16505865008 63226.233902148902 85925.624472118914 35410.600101441145 67385.470815338194 71366.889819063246 58100.048756033182 9872.9748601466417 50336.227741546929 60702.189307369292 108596.95044237375 130017.57820849866 4251.4369289651513 15415.660834096372 48866.397750400007
leaf_count=382938 225060 419932 748661 89038 168787 215556 121341 262788 244786 1048469 494748 688952 344665 565142 571813 476731 103386 393238 494083 1061125 960634 33286 122931 475690
internal_value=0 0.0423864 -0.0686299 -0.08746 0.0714808 0.00035636 -0.134695 -0.0603911 0.0179845 -0.0707692 0.0300584 0.0964061 0.108769 0.0287684 0.0146693 -0.0340587 0.0890944 0.00651373 -0.0508561 0.104436 -0.148665 -0.0328645 0.0419686 0.0622219
internal_weight=0 886003 547018 449332 523572 362432 163693 285639 97685.4 252137 196694 326878 240952 198531 154168 163901 153881 113562 118802 118470 143944 19748.4 86782.6 83131.1
internal_count=10713780 6821839 3891941 3264217 4150523 2671316 1204299 2059918 627724 1797130 1532463 2618060 1929108 1475442 1259886 1195874 1509176 887986 970814 1164511 1049672 154627 694744 644477
is_linear=0
shrinkage=0.15


Tree=3
num_leaves=25
num_cat=0
split_feature=34 21 168 151 277 35 35 0 168 168 151 151 34 169 34 25 151 169 36 0 151 168 160 21
split_gain=135351 37661.8 29106.6 19443.5 12835.9 8078.6 7863.5 7830.25 7294.51 7256.47 6931.37 6125.71 5759.96 4990.35 4931.52 4458.51 3896.41 3416.57 3376.55 3730.98 3269.23 3265.5 3038.06 2913.99
threshold=1.5543320178985598 0.52777779102325451 2.5833333730697636 0.86607143282890331 -0.011025606188923119 6.2500000000000009 8.2500000000000018 8.5000000000000018 4.8166668415069589 3.2250000238418584 0.5634920895099641 0.52777779102325451 2.2267118692398076 2.4663835763931279 2.8430825471878056 1.0000000180025095e-35 0.73214286565780651 1.1454972028732302 19.500000000000004 11.500000000000002 0.61250001192092907 5.1180555820465097 0.52777779102325451 1.0000000180025095e-35
decision_type=10 2 2 2 2 2 2 2 2 2 2 2 10 10 10 2 2 8 2 2 2 2 2 2
left_child=2 9 7 5 15 11 22 -1 18 -2 -11 -4 20 -7 21 16 17 -3 19 -6 -10 -12 -5 -16
right_child=1 4 3 6 8 13 -8 -9 12 10 14 -13 -14 -15 23 -17 -18 -19 -20 -21 -22 -23 -24 -25
leaf_value=0.052458131658121708 0.041214441413547916 0.10763727836048122 -0.032141235582312369 -0.083530672775372392 0.057966512376560746 0.027984351932411125 -0.027949390963851801 -0.033352346777284256 0.0091357083414320816 0.017485761161572921 -0.030508322997782999 -0.085588905566936865 0.031358042337628608 -0.050151692365622627 -0.042759550836043714 0.10392691171486196 -0.0047309463496422099 0.056424832048614981 0.076138419456691489 -0.012119077590449452 -0.080541535491473845 -0.08812321971673906 -0.13987582553726355 0.017013416749884869
leaf_weight=55301.290090858936 61457.18873295933 44499.490524798632 74894.721332378685 26519.864454761147 49599.719776175916 38964.010381370783 19632.201286762953 42172.671828255057 16708.319941096008 89219.894006237388 45556.554320655763 135610.45407199115 82264.579591318965 34832.235762372613 30311.129066027701 125067.53307673335 15907.488984771073 85870.821688182652 96520.65634252876 26074.53558935225 20210.607946902514 43050.875376746058 114457.56972742081 46508.165477022529
leaf_count=275985 446181 363974 509499 174448 278329 296949 154113 351739 128727 683507 334533 981098 646141 272372 234693 1012870 123658 680111 774151 262642 155535 333406 875738 363381
internal_value=0 0.0363834 -0.0589061 -0.0751706 0.0596567 -0.0516018 -0.116891 0.0153317 0.0377947 -0.00504727 -0.0162122 -0.066573 0.00926726 -0.00889629 -0.0343866 0.0831327 0.0653537 0.0739053 0.0575398 0.0338176 -0.0399565 -0.0585011 -0.129276 -0.00657162
internal_weight=0 878828 542385 444911 562724 284301 160610 97474 291378 316104 254647 210505 119184 73796.2 165427 271345 146278 130370 172195 75674.3 36918.9 88607.4 140977 76819.3
internal_count=10713780 6821839 3891941 3264217 4426138 2059918 1204299 627724 2245525 2395701 1949520 1490597 930403 569321 1266013 2180613 1167743 1044085 1315122 540971 284262 667939 1050186 598074
is_linear=0
shrinkage=0.15


Tree=4
num_leaves=25
num_cat=0
split_feature=280 33 33 151 49 169 169 0 151 0 1 33 34 11 169 33 170 151 3 0 34 0 275 151
split_gain=101453 32359.2 29352 13388.6 11598.2 8775.81 8716.54 7265.28 5791.43 5582.75 10009 5880.78 5402.97 5235.46 4257.4 3939.92 3208.17 3170.04 3013.84 3016.71 2937.23 2780.07 2663.85 2530.31
threshold=-1.0000000180025095e-35 4.0714285373687753 4.0714285373687753 0.76388889551162731 0.64222851395607006 2.8430825471878056 2.6188182830810551 9.5000000000000018 0.6904762089252473 13.500000000000002 19.500000000000004 5.0555555820465097 2.3093898296356206 0.78888890147209179 2.7808806896209721 3.1000000238418584 8.7500000000000018 0.18333333730697635 0.52777779102325451 12.500000000000002 1.1454972028732302 7.5000000000000009 3.9322539567947392 0.5634920895099641
decision_type=2 2 2 2 8 10 10 2 2 2 2 2 10 2 10 2 2 2 2 2 10 2 2 2
left_child=1 7 3 -2 6 9 18 15 -8 11 -11 16 23 20 -6 -1 -3 -12 -4 -20 -5 -17 -9 -7
right_child=2 5 4 13 14 12 8 22 -10 10 17 -13 -14 -15 -16 21 -18 -19 19 -21 -22 -23 -24 -25
leaf_value=-0.029723369162929076 -0.044857136499551566 0.065802679559006524 -0.0068595636880314564 -0.13563108588151704 -0.032487893374073484 0.019794727866511094 0.0024472109999238005 -0.04439683231472806 -0.056342280712301053 -0.037721254818897647 0.020671386528214732 0.105487574375885 0.044351213646917256 -0.038639338669845327 -0.090680125117809943 0.067956418805750471 -0.022930194745535752 0.075492350902856428 0.068593169258206618 0.015246822395466205 -0.084786611957435004 0.0045555804367223441 -0.17203930568995007 -0.05652147308679397
leaf_weight=34617.082122668624 144226.33554791659 69929.739041782916 36121.379649706185 88493.334513038397 79330.782110497355 18394.319228313863 89177.036706581712 72608.923218533397 65317.270427830517 25023.856462150812 29529.668008349836 133728.78839966655 106373.01002649963 20214.855291873217 43964.41097894311 28472.826765969396 10551.205302655697 120904.48142074049 51678.545429423451 44293.639967650175 35949.406361870468 34316.566187724471 3875.0921190679073 20861.224872112274
leaf_count=188275 1008062 433784 267797 685111 562770 143773 697188 631462 511976 282570 310147 744487 861775 153079 350725 127722 54726 1302182 285703 437620 271632 205238 31793 163834
internal_value=0 0.0399542 -0.0405781 -0.0771976 -0.0147689 0.0582163 0.00178119 -0.0162629 -0.0224079 0.0699575 0.0501194 0.0862069 0.0267995 -0.109442 -0.053238 0.0109059 0.0541696 0.0647312 0.0300723 0.0439725 -0.120943 0.0333057 -0.0508639 -0.0207613
internal_weight=0 709187 698767 288884 409883 535296 286588 173890 154494 389668 175458 214210 145629 144658 123295 97406.5 80480.9 150434 132094 95972.2 124443 62789.4 76484 39255.5
internal_count=10713431 5481768 5231663 2117884 3113779 4297278 2200284 1184490 1209164 3127896 1894899 1232997 1169382 1109822 913495 521235 488510 1612329 991120 723323 956743 332960 663255 307607
is_linear=0
shrinkage=0.15


Tree=5
num_leaves=25
num_cat=0
split_feature=281 33 33 280 11 33 147 12 147 0 3 33 33 274 147 1 274 274 0 1 160 160 0 12
split_gain=76281.1 28446.6 15416 13594.9 7869.37 7092.92 6933.91 5517.2 4960.72 4547.3 4467.87 3792.86 3170.39 3040.58 2853.14 2618.62 2607.67 2553.15 2360.65 2646.33 2119.28 1965.09 1767.38 1722.13
threshold=-0.0038627352332696314 3.1000000238418584 4.5357143878936776 0.0091206654906272906 0.94444444775581371 5.5277776718139657 0.26785714924335485 0.84523808956146251 0.30952382087707525 9.5000000000000018 0.15476191043853763 5.5634920597076425 3.5499999523162846 1.5000000000000002 0.23611111193895343 14.500000000000002 1.5000000000000002 1.5000000000000002 15.500000000000002 19.500000000000004 0.52777779102325451 0.13392857462167743 7.5000000000000009 0.38750000298023229
decision_type=2 2 2 2 2 2 2 2 2 2 2 2 2 2 2 2 2 2 2 2 2 2 2 2
left_child=2 4 9 5 6 8 20 13 17 12 23 -12 -1 -4 21 -16 -7 22 -9 -20 -2 -11 -3 -5
right_child=1 3 7 10 -6 16 -8 18 -10 14 11 -13 -14 -15 15 -17 -18 -19 19 -21 -22 -23 -24 -25
leaf_value=0.0049863604438641542 -0.077016526294548457 0.020966499075352408 0.040561627173265398 -0.03143439731053739 -0.013135058184034938 0.039194941242830413 -0.035585913832580023 0.083650167587848462 0.015928381780959188 -0.010142544881158689 -0.050267797972037669 -0.0082790703370329791 0.069795528513410213 -0.081989425266207921 -0.041224639577179333 0.038452939195249163 -0.035716612614433298 -0.099537820098927976 -0.046581013061702321 0.059745615647750105 -0.11840641923947481 -0.071332848454348868 -0.030454858241860627 -0.083170485859771923
leaf_weight=39377.487634211779 39747.611892327666 17672.88434830308 140212.41468861699 19790.859481930733 37028.070094481111 128417.41287799925 41253.141614243388 165881.33158189058 95882.149129100144 21755.85938642174 83838.176976501942 114526.95079661906 29863.194604635239 4708.1256099417806 14246.722708448768 26625.151083834469 11382.015566200018 10627.202189698815 5681.861304409802 72089.142744839191 92867.521206200123 25826.966763056815 100917.87780658156 53909.853797532618
leaf_count=213788 272099 78826 1144473 152019 269402 1014917 279391 1098117 674596 192234 636988 890711 149056 36672 129328 217741 86033 77007 66165 888632 745940 214408 773249 411639
internal_value=0 -0.028173 0.0437034 -0.0123634 -0.0759223 0.00655886 -0.0892938 0.059756 -0.00992208 0.00414848 -0.0377422 -0.0260254 0.0329383 0.0365802 -0.0183876 0.0106797 0.0330959 -0.0291036 0.0735406 0.0519775 -0.106001 -0.0433554 -0.0227918 -0.0692778
internal_weight=0 847862 546268 636965 210896 364900 173868 388573 225100 157695 272066 198365 69240.7 144921 88454.7 40871.9 139799 129218 243652 77771 132615 47582.8 118591 73700.7
internal_count=10713431 6362817 4350614 4795985 1566832 2704628 1297430 3234059 1603678 1116555 2091357 1527699 362844 1181145 753711 347069 1100950 929082 2052914 954797 1018039 406642 852075 563658
is_linear=0
shrinkage=0.15


Tree=6
num_leaves=25
num_cat=0
split_feature=34 33 169 141 12 0 156 169 21 38 0 0 141 34 168 34 153 168 11 33 3 11 11 34
split_gain=59189.8 23022 11869 9831.76 8075.48 5975.66 5473.49 4844.44 4782.31 3979.93 3767.92 3553.01 3471.34 3261.07 3117.2 3107.75 3032.9 2984.62 2514.21 3157.25 2333.27 2123.09 1933.25 1914.86
threshold=1.1454972028732302 5.0555555820465097 2.140783548355103 0.81666666269302379 0.76388889551162731 12.500000000000002 1.0000000180025095e-35 1.6444820165634157 0.11805555596947671 19.500000000000004 9.5000000000000018 9.5000000000000018 0.5634920895099641 2.140783548355103 4.1833331584930429 2.3093898296356206 1.0000000180025095e-35 3.2250000238418584 0.94444444775581371 7.4500000476837167 0.6904762089252473 0.30952382087707525 0.94444444775581371 2.8430825471878056
decision_type=10 2 10 2 2 2 2 10 2 2 2 2 2 10 2 10 2 2 2 2 2 2 2 10
left_child=3 4 5 7 12 -3 16 11 -4 -7 17 -1 -2 -12 -14 -10 21 -6 19 -9 -17 -5 -23 -16
right_child=1 2 8 6 10 9 -8 18 15 -11 13 -13 14 -15 23 20 -18 -19 -20 -21 -22 22 -24 -25
leaf_value=0.022659532464094221 -0.0042985826199166436 0.093357303424535798 -0.027791595516770323 -0.00069821424800118053 0.070514737742793571 -0.017055774103672424 -0.10640265561333552 -0.064704549921194759 -0.0023158170960336337 0.055049911387774042 -0.024920024306029933 -0.047959894189525377 -0.0061849305276953145 0.019720587040809257 -0.070403761893608988 0.015529261294039217 -0.10038395773428113 0.0065344964031687786 -0.00387944636928693 -0.0086476536484190701 0.050599103915503631 -0.12984588966704363 -0.034274878232086095 -0.021438611111787301
leaf_weight=51950.748183883727 102843.76624976844 97076.683861106634 41243.314036093652 26896.633173592389 40444.011072412133 19674.415249235928 80085.819564796984 110578.61244932562 59277.398066908121 138253.21819924563 60616.955510422587 23183.279501587152 39553.702745445073 93789.399745203555 64486.8228713274 68906.588475607336 18486.945910431445 27600.649046473205 27868.249796390533 28415.787391476333 112173.50639601797 6812.7726227194071 15823.072908289731 24911.828662000597
leaf_count=282778 739330 518619 324654 198075 215646 209605 659103 810561 470367 1434418 525281 213945 265678 771557 501791 556581 149933 136039 205623 223225 929598 54715 121857 195081
internal_value=0 0.0195901 0.0406268 -0.0493879 -0.00526068 0.0640698 -0.0798274 -0.0307586 0.0193979 0.0460671 0.0151551 0.000869274 -0.0248533 0.00219554 -0.0412464 0.0274952 -0.0485379 0.0445627 -0.0449998 -0.0532444 0.0372539 -0.0291874 -0.0630391 -0.0567591
internal_weight=0 990852 536605 390102 454247 255004 148105 241997 281601 157928 222451 75134 231796 154406 128952 240357 68019.4 68044.7 166863 138994 181080 49532.5 22635.8 89398.7
internal_count=10714060 7794245 4443842 2919815 3350403 2162642 1183683 1736132 2281200 1644023 1648523 496723 1701880 1296838 962550 1956546 524580 351685 1239409 1033786 1486179 374647 176572 696872
is_linear=0
shrinkage=0.15


Tree=7
num_leaves=25
num_cat=0
split_feature=34 168 151 3 35 12 3 0 171 168 34 178 169 0 151 171 0 147 171 0 169 30 147 35
split_gain=45346.5 20610.7 12102.6 11785.8 7388.7 7266.51 4019.76 3530.57 4055.94 2863.04 3539.48 2809.15 2795.01 3075.01 2772.53 2723.48 2536 2489.37 2247.11 2122.88 2862.12 2114.93 2189.1 2153.07
threshold=2.140783548355103 3.1000000238418584 0.73214286565780651 0.52777779102325451 8.2500000000000018 0.6904762089252473 0.58571431040763866 9.5000000000000018 12.500000000000002 4.1547617912292489 2.7461991310119633 0.47543004155159002 2.9134328365325932 12.500000000000002 0.15476191043853763 11.500000000000002 12.500000000000002 0.47222222387790685 16.500000000000004 6.5000000000000009 1.6444820165634157 0.23611111193895343 0.38750000298023229 6.7500000000000009
decision_type=10 2 2 2 2 2 2 2 2 2 10 8 10 2 2 2 2 2 2 2 10 2 2 2
left_child=1 6 21 -2 11 -5 -1 15 -9 14 17 -4 13 -6 -7 19 -10 -11 -18 20 -8 22 23 -3
right_child=3 2 4 5 12 9 7 8 16 10 -12 -13 -14 -15 -16 -17 18 -19 -20 -21 -22 -23 -24 -25
leaf_value=-0.02196193763785061 -0.012268939576977016 -0.036037937747502191 -0.089425155156069136 0.012456593652717307 0.084520292037489161 0.028834471507142252 0.093767037237727405 -0.057553168693541212 0.048925423743841547 -0.0083227111984491963 0.054748101833997344 -0.057187154763761495 -0.093423740844400624 -0.016592078668867222 0.076555279079301347 0.070621760416376272 -0.072377571834506577 0.047150518287809445 0.019514320332087432 -0.0011953764151536514 -0.039237482151639809 -0.071559552234543883 0.0086885449062160964 0.0088137513218120456
leaf_weight=62244.508866928518 124599.0516487062 90546.645308740437 119249.89840742201 159146.04328411072 10440.879314154387 35180.52907140553 14427.158961132169 21132.464039623737 30312.411053694785 46082.868034861982 122784.50303288549 124112.96806610376 5980.1207221001387 19234.302007697523 123753.9794453308 41327.562034383416 9639.8516155853868 30083.591008245945 15803.892262242734 36887.831808924675 4868.8147215694189 14365.401524402201 72818.863265432417 32806.661875091493
leaf_count=412443 975396 668845 998355 1269679 48929 295992 59491 194373 218806 369505 1037009 966142 48793 185087 1081847 210005 109425 243627 164790 239212 20374 107245 531201 257489
internal_value=0 -0.0255845 -0.0431539 0.0291434 -0.0636409 0.0391233 0.010762 0.0224414 -0.00159321 0.0509816 0.0389902 -0.0729841 0.000130243 0.0189832 0.0659922 0.0413929 0.0196165 0.0135876 -0.0153007 0.0198929 0.060207 -0.0160031 -0.0119348 -0.0241093
internal_weight=0 726200 489556 641631 279018 517032 236644 174400 76888.6 357885 198951 243363 35655.3 29675.2 158935 97511.4 55756.2 76166.5 25443.7 56183.8 19296 210538 196172 123353
internal_count=10714060 5441005 3812086 5273055 2247306 4297659 1628919 1216476 687394 3027980 1650141 1964497 282809 234016 1377839 529082 493021 613132 274215 319077 79865 1564780 1457535 926334
is_linear=0
shrinkage=0.15


Tree=8
num_leaves=25
num_cat=0
split_feature=34 33 169 147 178 0 151 147 25 36 156 274 3 156 151 274 3 160 160 151 34 169 153 34
split_gain=34927.5 15628.6 8280.88 7463.73 6136.88 5958.67 5869.28 4514.4 3412.04 3147.4 3039.89 2934.45 2540.3 2468.2 2299.78 2084.1 2000.84 1857.96 1851.92 2136.28 1756.14 1574.83 1511.41 1507.2
threshold=0.85355338454246532 5.0555555820465097 2.3093898296356206 0.30952382087707525 0.64222851395607006 13.500000000000002 0.94444444775581371 0.30952382087707525 0.11805555596947671 19.500000000000004 1.0000000180025095e-35 1.5000000000000002 0.6904762089252473 1.0000000180025095e-35 0.6904762089252473 1.5000000000000002 0.81666666269302379 0.30952382087707525 0.5634920895099641 0.13392857462167743 1.8971835970878603 1.3526039719581606 1.0000000180025095e-35 2.87434995174408
decision_type=10 2 10 2 8 2 2 2 2 2 2 2 2 2 2 2 2 2 2 2 10 8 2 10
left_child=6 3 5 4 11 16 10 15 -6 -7 22 17 -5 -8 -12 20 -3 -2 19 -11 -4 -14 -1 -19
right_child=1 2 7 12 8 9 13 -9 -10 18 14 -13 21 -15 -16 -17 -18 23 -20 -21 -22 -23 -24 -25
leaf_value=0.0030056045892609957 -0.0040386162500560836 0.046858393688287023 -0.03590724286145807 -0.007472107340081198 -0.022312126303341142 -0.03262978935966325 -0.052043270257899794 0.03216642117624377 0.037664209955412205 0.005070934682100469 -0.027610788137760276 -0.099130267284007909 0.053845167896725034 -0.10649087641185356 -0.065488454519185765 -0.072488638753873791 0.084121970383484804 -0.045776040311368414 0.0074069696559829964 0.060991633127711581 0.0070720279225501906 0.017880304838717644 -0.044178317283960482 -0.0097883699039009019
leaf_weight=58330.696935869753 47815.54557274282 51182.153549604118 26892.742198593915 68773.04252037406 36792.060709737241 17628.057738520205 34741.096926659346 127325.61960084736 50823.471021980047 20240.623496510088 74513.040223777294 14767.442073650658 37948.984607167542 40654.465172417462 69899.950194574893 10081.617845013738 88446.809074126184 119746.09452392906 37366.469720251858 63885.389675334096 104550.05747258663 98494.414319343865 20693.833730556071 33512.814433135092
leaf_count=421824 353386 305320 214379 489323 265660 198070 270693 1062254 351360 220570 533091 115040 277181 355201 575397 77898 538122 937132 414387 744164 845493 726312 158911 261411
internal_value=0 0.0128709 0.0304563 -0.00606013 -0.0210021 0.0485716 -0.0452134 0.011674 0.0124786 0.0266006 -0.0330021 -0.0345927 0.0160348 -0.0814023 -0.0459446 -0.00676255 0.0704627 -0.0298529 0.0351947 0.0475372 -0.00172138 0.0278832 -0.00935026 -0.0379067
internal_weight=0 1.05627e+06 547600 508674 303457 278750 298833 268850 87615.5 139121 223438 215842 205216 75395.6 144413 141524 139629 201074 121492 84126 131443 136443 79024.5 153259
internal_count=10712579 8397462 4620657 3776805 2283989 2420633 2315117 2200024 617020 1577191 1689223 1666969 1492816 625894 1108488 1137770 843442 1551929 1379121 964734 1059872 1003493 580735 1198543
is_linear=0
shrinkage=0.15


Tree=9
num_leaves=25
num_cat=0
split_feature=280 147 12 33 169 11 167 274 274 0 33 25 33 0 273 11 168 287 169 252 0 33 1 0
split_gain=26236.6 11870.3 6676.4 5376.53 5260.61 4761.91 4190.59 4009.52 3053.28 2630.87 2482.64 2382.78 1927.66 1967.72 1849.06 1799.02 1789.64 1557.96 1489.56 1434.06 1400.78 3193.99 1474.52 1390.67
threshold=-0.0046538827009499064 0.15476191043853763 0.84523808956146251 3.5499999523162846 2.8668862581253056 0.94444444775581371 0.52777779102325451 2.5000000000000004 -0.50000000000000056 12.500000000000002 4.1547617912292489 0.84523808956146251 5.5277776718139657 11.500000000000002 0.0083031821995973604 0.81666666269302379 3.2250000238418584 2016.5000000000002 3.6426678895950322 0.061522129923105247 12.500000000000002 6.3541667461395273 19.500000000000004 14.500000000000002
decision_type=2 2 2 2 10 2 2 2 2 2 2 2 2 2 2 2 2 2 10 2 2 2 2 2
left_child=2 3 7 5 11 16 8 10 -3 -6 -1 20 -4 -14 -10 -11 -2 -8 23 -18 21 -5 -22 -12
right_child=1 6 12 4 9 -7 17 -9 14 15 18 -13 13 -15 -16 -17 19 -19 -20 -21 22 -23 -24 -25
leaf_value=-0.018337834744747566 -0.020030221136369899 0.02587006696894557 0.029673853420885996 -0.0023379151966333223 -0.081758226822977703 -0.0034888537310506979 0.036208552632134142 -0.15253121064407527 -0.0072452484319453251 -0.041760954223741285 0.036483001688783975 -0.040627665704783843 0.089596625711815106 0.04488959713130742 -0.035643129658390227 0.028526680908277927 -0.12153827009651579 0.0065285712036400531 -0.014009640687124215 -0.071309822227277234 -0.057826389221310073 0.066914404936638125 0.00056529052837706885 0.0049182532585966129
leaf_weight=55444.891372583807 13226.673414975405 42601.656779758632 162160.35616645962 51114.151625111699 35886.540685273707 28493.6904553473 72403.975824676454 3511.3737867176533 136002.63270477951 51980.353451646864 85168.909455224872 33378.901314817369 27588.949281968176 112381.74183276296 83118.771635055542 9726.4237533956766 14982.869917858392 88351.828174874187 26574.395464263856 87361.762397356331 13129.801620423794 21199.547338165343 37583.140858106315 49750.130279377103
leaf_count=388475 87536 315883 1290047 310253 179774 216158 545460 27334 1018819 532434 544184 249550 139509 1162679 637294 96407 134717 666701 217347 758535 142672 107027 363142 580642
internal_value=0 -0.0166778 0.0263229 -0.0352643 -0.0221354 -0.0584117 0.000834541 0.00647436 -0.0108736 -0.0494635 0.00904803 -0.0050833 0.0408054 0.0537016 -0.0180173 -0.030682 -0.0719528 0.0198964 0.0184503 -0.0786631 0.0045604 0.0179642 -0.0145526 0.0248438
internal_weight=0 820543 522581 398064 253999 144065 422479 220450 261723 97593.3 216938 156406 302131 139971 219121 61706.8 115571 160756 161493 102345 123027 72313.7 50712.9 134919
internal_count=10712579 6362362 4350217 3178205 1981259 1196946 3184157 1757982 1971996 808615 1730648 1172644 2592235 1302188 1656113 628841 980788 1212161 1342173 893252 923094 417280 505814 1124826
is_linear=0
shrinkage=0.15


Tree=10
num_leaves=25
num_cat=0
split_feature=34 12 3 274 141 34 168 156 34 141 0 171 35 168 11 0 171 0 280 167 288 153 11 171
split_gain=20755.7 11829.3 4466.02 3584.67 3538.87 3022.63 5338.9 2713.1 2683.1 2589.61 1989.42 3894.03 2071.45 1681.76 2217.37 1623.8 1739.9 1614.15 1525.97 1518.07 1434.89 1424.93 1240.61 1208.61
threshold=0.85355338454246532 0.6904762089252473 0.52777779102325451 2.5000000000000004 0.81666666269302379 2.6575103998184209 4.3095238208770761 1.0000000180025095e-35 2.3093898296356206 0.58571431040763866 11.500000000000002 18.500000000000004 4.2500000000000009 4.1547617912292489 0.94444444775581371 11.500000000000002 17.500000000000004 7.5000000000000009 0.0063175768591463575 0.43650794029235845 99.998203277587905 1.0000000180025095e-35 0.94444444775581371 11.500000000000002
decision_type=10 2 2 2 2 10 2 2 8 2 2 2 2 2 2 2 2 2 2 2 2 2 2 2
left_child=4 3 -3 8 19 6 10 21 13 -8 12 -12 17 -2 -15 16 -11 -4 -10 22 -7 -6 -1 -19
right_child=1 2 5 -5 7 20 9 -9 18 15 11 -13 -14 14 -16 -17 -18 23 -20 -21 -22 -23 -24 -25
leaf_value=-0.040110949562996538 -0.0078387857046349398 -0.0068933079500134546 0.058699425907288168 -0.10688025765529102 -0.01636788785403501 0.048461438702195027 0.019146703129468073 -0.0786429251519985 0.012468835205133274 -0.022210009594743774 -0.02698141763106696 0.038072875196000611 0.066591141333076434 -0.046279252596254553 0.018284517203094826 -0.0084786625210124429 -0.1032760678518396 -0.024579128286514252 -0.015962886009503546 -0.0046929049278063529 0.020026929853766882 -0.075392122220805907 0.00098280681230938547 0.033313691057931624
leaf_weight=96352.678838387132 102929.93289286643 98242.745471902192 20259.656532838941 8465.2768253907561 37167.573613382876 164523.11697686464 50174.088933080435 58935.986256457865 140493.88175427914 13956.594497710466 30329.059882901609 65227.823797211051 57801.5461634323 74994.576757755131 14241.389844879508 43726.059241183102 10392.996602892876 16020.518563225865 60878.65567664057 66832.606205467135 52728.393438242376 12231.07705457136 19952.802852518857 16439.635348729789
leaf_count=718484 732993 757048 95117 67004 291726 1472129 395211 557444 1133700 85028 320135 656574 325679 604996 110656 415487 45288 126837 476760 490587 470190 111386 145670 109752
internal_value=0 0.00986131 0.0225308 -0.0103032 -0.0354208 0.0278683 0.0186968 -0.0569105 -0.00822574 -0.00670948 0.0332752 0.0174251 0.0469791 -0.0209046 -0.0359754 -0.0257664 -0.056811 0.0254767 0.0038734 -0.0227087 0.0415602 -0.0309823 -0.0330611 0.00474103
internal_weight=0 1.04183e+06 639822 402004 291473 541579 324328 108335 393538 118250 206078 95556.9 110521 192166 89236 68075.7 24349.6 52719.8 201373 183138 217252 49398.7 116305 32460.2
internal_count=10715881 8400584 5274475 3126109 2315297 4517427 2575108 960556 3059105 941014 1634094 976709 657385 1448645 715652 545803 130316 331706 1610460 1354741 1942319 403112 864154 236589
is_linear=0
shrinkage=0.15


Tree=11
num_leaves=25
num_cat=0
split_feature=33 169 151 184 151 3 151 49 169 36 160 11 64 167 151 11 167 274 170 280 225 64 25 168
split_gain=15522.2 8880.48 5872.04 5576.32 3262.51 2804.09 2625.59 2415.46 2390.8 2228.04 1891.36 1973.76 1841.76 1561.79 1375.19 1249.36 1295.13 1165.57 1073.6 1711.77 985.894 979.822 781.976 752.32
threshold=4.0714285373687753 2.140783548355103 0.52777779102325451 0.5222977101802827 0.78888890147209179 0.6904762089252473 0.15476191043853763 0.34344336390495306 2.7907133102416997 19.500000000000004 0.5634920895099641 0.94444444775581371 1.0000000180025095e-35 0.94444444775581371 1.0000000180025095e-35 0.94444444775581371 0.94444444775581371 6.2687823165327108e-16 8.7500000000000018 -0.017978762276470658 0.30351062119007116 0.7167949676513673 0.13392857462167743 8.8333334922790545
decision_type=2 10 2 8 2 2 2 10 10 2 2 2 10 2 2 2 2 2 2 2 2 10 2 2
left_child=3 5 14 4 15 -2 -7 8 9 -4 -6 13 23 20 -3 16 22 -9 19 -14 -12 -16 -1 -8
right_child=1 2 7 -5 10 6 12 17 -10 -11 11 -13 18 -15 21 -17 -18 -19 -20 -21 -22 -23 -24 -25
leaf_value=-0.047995631627075229 0.0047714046803639318 -0.014066629865962781 -0.043298611998798288 0.00089417391262859222 -0.023561069244913403 0.0064268672448106884 0.024081644306308811 0.0049246533814812929 -0.046181432494374786 0.015482385895189583 -0.080380060573934001 -0.011276270416488755 0.074407934198409631 -0.044654711647787025 0.0096008507450731553 0.01136720720054004 -0.0048805385933033624 -0.028976209071521156 0.01150669287015905 0.041922568765827416 -0.14801622387185942 0.032484711959624921 -0.018397755090042184 -0.052460012015887153
leaf_weight=53227.304879318923 94850.973124943674 27194.25058952719 23671.112367674708 141924.46386093646 37410.443939864635 61814.902901031077 71199.434862054884 108868.92792374641 84780.99690516293 37483.862380281091 48819.942443210632 14136.404417701066 54323.885257229209 30473.779011636972 76114.020271889865 23641.169527731836 42871.439632490277 28870.34130563587 15671.991606228054 111213.31455042958 5383.7711590602994 94202.780791163445 32254.955774694681 3011.4838603436947
leaf_count=392444 735224 226519 184589 992891 276946 529228 563235 892949 709816 299777 468979 114808 532130 286185 617342 171011 308662 230671 130424 950963 55546 786145 234844 24553
internal_value=0 0.0112388 -0.00260175 -0.0234442 -0.0354288 0.0274003 0.0341662 -0.0164283 -0.0298754 -0.00726984 -0.0522863 -0.0631616 0.0408794 -0.0718235 0.0172566 -0.0203204 -0.0261569 -0.00218101 0.0490307 0.0525832 -0.087098 0.022258 -0.0368275 0.0209756
internal_weight=0 893272 481186 430144 288219 412086 317235 283675 145936 61155 136224 98813.9 255420 84677.5 197511 151995 128354 137739 181209 165537 54203.7 170317 85482.3 74210.9
internal_count=10715881 7413565 3947808 3302316 2309425 3465757 2730533 2317802 1194182 484366 1202464 925518 2201305 810710 1630006 1106961 935950 1123620 1613517 1483093 524525 1403487 627288 587788
is_linear=0
shrinkage=0.15


Tree=12
num_leaves=25
num_cat=0
split_feature=43 12 33 151 169 0 0 34 34 169 156 0 151 34 165 156 1 1 0 168 43 1 151 151
split_gain=12808.5 8210.6 3294.88 2813.82 2757.19 2527.68 2444.97 2935.6 2324.87 2320.82 2088.31 1764.69 1699.47 1569.25 1407.69 1348.02 1314.66 1271.87 2018.57 1221.7 1212.16 1114.78 1001.88 926.516
threshold=0.64222851395607006 0.6904762089252473 5.5277776718139657 0.94444444775581371 1.6444820165634157 15.500000000000002 8.5000000000000018 2.8797318935394292 2.140783548355103 2.8668862581253056 1.0000000180025095e-35 11.500000000000002 0.5634920895099641 2.2267118692398076 1.0000000180025095e-35 1.0000000180025095e-35 19.500000000000004 10.500000000000002 10.500000000000002 4.3095238208770761 0.36575892567634588 12.500000000000002 0.11805555596947671 0.5634920895099641
decision_type=8 2 2 2 10 2 2 10 10 10 2 2 2 10 2 2 2 2 2 2 10 2 2 2
left_child=1 8 4 10 6 9 19 17 -1 11 -2 -4 -6 -11 23 -5 -7 -8 -19 -3 -14 -20 -18 -12
right_child=3 2 5 15 12 16 7 -9 -10 13 14 -13 20 -15 -16 -17 22 18 21 -21 -22 -23 -24 -25
leaf_value=-0.021814920714437681 0.0013745211650185462 0.058429463823882026 0.075138356277731549 -0.033821714118420415 0.010376520470914049 -0.059028505606760914 -0.0640142582836703 0.046780330244636896 0.001152679899062466 -0.020093864324844571 -0.0063322943977758206 0.038513317503725469 -0.041940401217669857 0.032550378052572708 -0.079251260490429409 -0.07682090849742354 -0.026689824542654027 0.031595257205990664 -0.072258586110748854 -0.0020162856859722122 -0.0061542391782920354 -0.0071170966452827793 0.020611519650169413 -0.034864279674472774
leaf_weight=185631.74389695749 65496.062904629856 44042.535434670746 44278.792505033314 31298.941979501396 81347.849611207843 5854.5364149212837 7070.3459311276674 36676.338916063309 212884.35558698326 19472.637937672436 36449.842959403992 89290.445557452738 33876.437784820795 36848.495986901224 12483.575163319707 34471.365108653903 11604.667204335332 33570.022223636508 6604.6712731570005 9073.3733019530773 57350.898145686835 56276.753282792866 76444.011916287243 86090.226646665484
leaf_count=1413114 489414 226673 232749 256018 639238 68396 57595 340749 1713086 121735 258177 744875 273135 244219 98634 346814 145167 225040 69000 44886 465222 521074 1002566 715922
internal_value=0 0.00740478 0.0178023 -0.0294352 0.00839452 0.0299315 0.0206974 0.010314 -0.0095458 0.0398865 -0.0206044 0.0506547 -0.00538684 0.014349 -0.0312658 -0.0563583 0.00980069 -0.00260545 0.00189611 0.048104 -0.0194431 -0.0139592 0.0143773 -0.0263774
internal_weight=0 1.0482e+06 649683 266290 365889 283794 193314 140198 398516 189890 200520 133569 172575 56321.1 135024 65770.3 93903.2 103522 96451.4 53115.9 91227.3 62881.4 88048.7 122540
internal_count=10713498 8548519 5422319 2164979 2862612 2559707 1485017 1213458 3126200 1343578 1562147 977624 1377595 365954 1072733 602832 1216129 872709 815114 271559 738357 590074 1147733 974099
is_linear=0
shrinkage=0.15


Tree=13
num_leaves=25
num_cat=0
split_feature=64 11 177 33 154 249 169 0 36 170 147 151 147 36 0 169 0 36 0 25 0 36 190 274
split_gain=10316.7 4842.45 3174.69 2987.79 2421.85 2008.78 1976.58 2314.47 4062.32 2134.23 1767.65 1561.3 1532.1 1492.04 1396.27 1242.97 1299.84 1487.02 1729.77 1164.56 1047.89 1345.48 1035.53 1006.01
threshold=1.0000000180025095e-35 0.18333333730697635 0.6904762089252473 3.5499999523162846 0.38750000298023229 -0.54111534357070912 2.8430825471878056 11.500000000000002 19.500000000000004 8.7500000000000018 0.30952382087707525 0.13392857462167743 0.30952382087707525 19.500000000000004 11.500000000000002 1.8971835970878603 8.5000000000000018 14.500000000000002 14.500000000000002 0.15476191043853763 16.500000000000004 16.500000000000004 1.0000000180025095e-35 -0.50000000000000056
decision_type=10 2 2 2 2 2 10 2 2 2 2 2 2 2 2 10 2 2 2 2 2 2 8 2
left_child=2 3 15 -2 -3 -4 7 9 20 13 14 -10 -11 -5 19 16 -1 -18 -19 -8 21 -9 -7 -17
right_child=1 4 5 6 -6 22 10 8 11 12 -12 -13 -14 -15 -16 23 17 18 -20 -21 -22 -23 -24 -25
leaf_value=0.024325005462471853 -0.0078727741221693466 -0.02511358662196966 -0.01674713241085149 0.037925001608413944 0.0068040743545057002 -0.053457572043121009 -0.110391540476343 -0.037687252022560437 -0.0021526701902652057 -0.11467903348907788 0.022538993909854178 0.035898735426796786 0.069975273134745691 0.074569261989592822 0.0011737419481312192 0.016774068752696335 -0.029179965220209696 0.033829062421639709 -0.029411711210049905 -0.021142488419073482 -0.08141721623649488 0.018232280062306882 -0.017490280097015556 -0.019090136680969826
leaf_weight=47992.795845702291 85954.447284206748 102765.1464786008 118445.91593948007 82705.681101419032 111553.17248317227 80068.272828757763 4992.6359729245305 21266.816573314369 29020.61052069068 3124.3576009571552 80125.278326377273 147963.86749194562 1494.6496686041355 35832.170063614845 49302.180168475956 19977.453476540744 36546.482396837324 28151.470322601497 14872.627398386598 9643.454051733017 5636.8570209518075 17771.280844904482 23237.714125689119 147742.07771102339
leaf_count=249098 650647 820612 985809 497746 864245 697100 22535 226585 288513 13479 680609 1533252 6528 183720 463084 151471 318856 200773 181732 44012 65872 171189 189897 1206134
internal_value=0 0.0107432 -0.0165167 0.0179178 -0.00850037 -0.0300801 0.0224523 0.0286173 0.019457 0.0451041 0.00769646 0.0296593 -0.0549273 0.049002 -0.0109037 -0.00633089 0.00482825 -0.00693116 0.0119679 -0.051587 -0.0209606 -0.012231 -0.0453671 -0.0148183
internal_weight=0 789153 517035 574834 214318 221752 488880 344816 221659 123157 144064 176984 4619.01 118538 63938.3 295283 127563 79570.6 43024.1 14636.1 44675 39038.1 103306 167720
internal_count=10713498 6532628 4180870 4847771 1684857 1872806 4197124 2986884 2285411 701473 1210240 1821765 20007 681466 529631 2308064 950459 701361 382505 66547 463646 397774 886997 1357605
is_linear=0
shrinkage=0.15


Tree=14
num_leaves=25
num_cat=0
split_feature=34 275 167 3 179 27 141 287 287 247 249 280 225 46 33 0 0 169 11 33 160 274 11 65
split_gain=8453.48 4484.86 3446.94 3187.12 2461.63 2194.97 1902.81 1825.64 1383 1072.15 1023.74 991.642 896.977 867.173 821.246 745.643 732.181 1045.26 694.973 770.976 676.581 663.975 663.763 654.494
threshold=1.6444820165634157 0.70965057611465465 0.18333333730697635 0.6904762089252473 0.75000000000000011 0.73214286565780651 0.88194444775581371 2017.5000000000002 2016.5000000000002 1.0000000180025095e-35 -0.58356851339340199 0.0068261099513620147 0.4742607474327088 1.0000000180025095e-35 7.6333332061767587 11.500000000000002 7.5000000000000009 1.6444820165634157 0.94444444775581371 2.1666666269302373 0.15476191043853763 2.5000000000000004 0.18333333730697635 2017.2500000000002
decision_type=10 2 2 2 2 2 2 2 2 8 2 2 2 10 2 2 2 10 2 2 2 2 2 2
left_child=2 3 4 11 16 7 10 13 -4 -3 -6 -2 18 -5 -10 -7 17 22 19 -8 -15 -11 -1 -9
right_child=1 9 8 5 6 15 12 23 14 21 -12 -13 -14 20 -16 -17 -18 -19 -20 -21 -22 -23 -24 -25
leaf_value=0.046034157368495941 0.0063133561605413554 -0.14422209192378049 0.013610982930164894 0.026005086406687014 -0.0098573442199879294 0.020329360330458707 -0.084197438924422191 -0.0010748098187197631 -0.01529787958470118 -0.014357115174481544 -0.036003146946772681 -0.015805653732019417 -0.12251933992638274 0.056308353267708597 0.018982939810981769 -0.010709281831417627 -0.014132574042647518 -0.025154021968977008 -0.0084921414619913375 -0.044699712826065691 0.032952720804312635 -0.062345555166065512 -0.027811987700468666 0.020785948086879787
leaf_weight=16227.393647991121 153428.61206336319 1534.6755901575089 95192.169796217233 123174.28272944689 59165.194327969104 25699.178802095354 16650.847658239305 49177.626009568572 108244.79834416509 89116.588036965579 78272.327892955393 64892.730844244361 4300.2720729112625 54069.700316853821 18395.830408599228 54018.892423503101 86617.127419553697 10480.704919040203 7371.1421942859888 33471.292333252728 57676.234067030251 6996.5696094110608 3294.7171399816871 82524.413068979979
leaf_count=77395 1229969 11682 746511 1073405 474409 137804 185397 439701 843467 717128 638682 512965 46952 499242 151480 532702 697616 50282 61197 293568 513996 55623 15280 707582
internal_value=0 0.0101806 -0.0143807 0.0145905 -0.0244457 0.021855 -0.0345771 0.02676 -4.98121e-05 -0.0198366 -0.0247477 -0.000261186 -0.0564392 0.0346855 -0.0103182 -0.000703174 -0.00713748 0.0130571 -0.0514967 -0.0578211 0.0442536 -0.0178504 0.0335713 0.0126231
internal_weight=0 762310 537684 664662 315851 446340 199231 366622 221833 97647.8 137438 218321 61793.6 234920 126641 79718.1 116620 30002.8 57493.3 50122.1 111746 96113.2 19522.1 131702
internal_count=10714035 6431799 4282236 5647366 2540778 3904432 1700205 3233926 1741458 784433 1113091 1742934 587114 2086643 994947 670506 840573 142957 540162 478965 1013238 772751 92675 1147283
is_linear=0
shrinkage=0.15


Tree=15
num_leaves=25
num_cat=0
split_feature=33 181 169 0 1 151 25 11 160 0 274 1 0 0 1 168 160 147 0 280 30 190 169 0
split_gain=6749.67 4132.99 3445.07 4961.83 3266.24 3193.44 2413.41 2246.52 2207.64 2055.38 1888.52 1871.55 1625.92 1462.98 1761.31 1355.47 1228.06 1220.92 1159.77 1139.7 1136.18 1109.05 1070.8 1053.15
threshold=5.0555555820465097 0.5222977101802827 2.8668862581253056 11.500000000000002 19.500000000000004 0.58571431040763866 0.11805555596947671 0.94444444775581371 0.41428571939468389 16.500000000000004 1.5000000000000002 19.500000000000004 13.500000000000002 8.5000000000000018 12.500000000000002 2.7083333730697636 0.64583334326744091 0.23611111193895343 16.500000000000004 0.0068261099513620147 0.30952382087707525 1.0000000180025095e-35 2.1888012886047368 11.500000000000002
decision_type=2 8 10 2 2 2 2 2 2 2 2 2 2 2 2 2 2 2 2 2 2 10 10 2
left_child=1 5 3 11 18 20 7 12 -4 -6 19 22 15 -3 -15 -7 -11 23 -5 -8 -1 -21 -2 -10
right_child=2 13 8 4 9 6 10 -9 17 16 -12 -13 -14 14 -16 -17 -18 -19 -20 21 -22 -23 -24 -25
leaf_value=0.0019346409513515714 0.038060912202148627 0.025594424720414059 0.0096613648997327262 -0.01518101215633815 0.027016753408120268 0.0055193204674254884 0.00041929932559550649 0.003798604139360201 -0.073684992771507404 0.0096877266573455328 -0.067001585494533264 0.067181808233697016 -0.024184761530993564 -0.031482843798987442 0.0082821183791615561 -0.069170797738899822 -0.030320092841071261 0.0011236807113164746 -0.076860641122209916 -0.033371390277274454 -0.048140864720254153 0.014243357387808651 -0.013511976357765441 -0.024021593920999861
leaf_weight=157842.25721457601 47249.226468019187 67880.768346324563 119999.44309204072 43266.938550710678 153348.25893191993 5934.7921753749251 89404.022930361331 19986.538089409471 12045.426978215575 56979.005203329027 14763.15356182307 52554.087748095393 35083.198999132961 33073.470909859985 103464.83053871617 69352.014626570046 24766.157429240644 35342.96960054338 8151.3942190334201 60683.86220516637 10898.697111569345 13445.089249819517 11206.845001682639 47464.315137159079
leaf_count=1153898 279090 349108 1016294 435623 1339831 38151 670063 158512 54493 761977 132534 268282 447109 284802 863136 506002 310608 294372 95547 542035 80876 114954 58845 457893
internal_value=0 -0.0102499 0.0114467 0.0197179 0.00928653 -0.017892 -0.026963 -0.0424753 -0.0038569 0.0167766 -0.0156216 0.0466408 -0.0508549 0.00759729 -0.00135009 -0.063283 -0.00243336 -0.020959 -0.0249591 -0.0109832 -0.00129965 -0.0247353 0.0281737 -0.034074
internal_weight=0 681813 612374 397522 286512 477394 308653 130357 214852 235093 178296 111010 110370 204419 136538 75286.8 81745.2 94852.7 51418.3 163533 168741 74129 58456.1 59509.7
internal_count=10714035 5341180 5372855 3549803 2943586 3844134 2609360 1149774 1823052 2412416 1459586 606217 991262 1497046 1147938 544153 1072585 806758 531170 1327052 1234774 656989 337935 512386
is_linear=0
shrinkage=0.15


Tree=16
num_leaves=25
num_cat=0
split_feature=279 147 25 160 147 274 165 169 119 151 151 33 169 33 167 287 274 33 11 12 247 151 11 169
split_gain=6082.1 3088.92 3074.76 3253.77 2346.58 2198.08 1862.21 1757.52 1542.94 1441.1 1365.19 1056.45 1146.67 1054.57 948.464 983.738 885.173 835.239 877.247 813.276 812.342 803.837 772.469 884.546
threshold=0.013892062474042179 0.13392857462167743 1.0000000180025095e-35 0.11805555596947671 0.13392857462167743 2.5000000000000004 0.11805555596947671 1.6444820165634157 0.13285905122756961 0.47222222387790685 0.18333333730697635 5.0555555820465097 2.8668862581253056 6.0625000000000009 0.47222222387790685 2016.5000000000002 -0.50000000000000056 5.5277776718139657 0.86607143282890331 1.0000000180025095e-35 0.041711604222655303 0.13392857462167743 0.94444444775581371 1.1454972028732302
decision_type=2 2 2 2 2 2 2 8 2 2 2 2 10 2 2 2 2 2 2 2 10 2 2 10
left_child=2 5 4 -4 17 8 -3 10 19 21 -6 22 -13 -11 16 -16 -5 18 -1 -2 -7 -9 23 -10
right_child=1 6 3 14 7 20 -8 9 11 13 -12 12 -14 -15 15 -17 -18 -19 -20 -21 -22 -23 -24 -25
leaf_value=-0.033816189193543691 -0.017827532634046548 0.0014053390500589184 0.038325654467702495 0.019943906556074885 -0.020511097963762825 -0.14678119573398615 -0.047389195503198263 -0.0018252556853927619 -0.0040154859153888169 -0.032068659766282342 0.030784950933931701 0.011946329970669682 -0.025299450878210904 0.010451699621095288 0.035252260938464106 0.0050597342104543733 -0.0089923377593127754 0.0047455974008573463 0.0088030619434364028 -0.061428566211511368 -0.061425826348111938 0.023437210145768328 0.0024494354547006498 -0.037665744817435211
leaf_weight=66639.426768280566 14721.176857125014 287137.40204937756 127697.01127138734 32994.068063881248 13614.060767948627 3163.4638056233525 18747.169746913016 71807.500703886151 23136.927792001516 45466.286047652364 81906.451954204589 51143.094277236611 29226.0774615556 18449.319827720523 45274.080017980188 52363.918336685747 85232.599754005671 24620.542532734573 12983.774440772831 27808.276731628925 12122.140788130462 46817.008634336293 20563.013841383159 73131.425495374948
leaf_count=543670 121105 2308005 1101509 265342 108824 30009 149886 589405 168950 362480 698454 435333 253835 154046 380643 434655 713746 214921 97392 258953 112013 386813 158297 664609
internal_value=0 -0.011749 0.0090478 0.0193462 -0.000206986 -0.0239402 -0.0015852 0.00698849 -0.0204237 -0.00163812 0.023474 -0.0148352 -0.00159802 -0.0197951 0.00811875 0.0190598 -0.000916965 -0.0194003 -0.0268665 -0.0463365 -0.0790907 0.00814497 -0.0239412 -0.0295783
internal_weight=0 560900 725866 343562 382304 255016 305885 278061 239730 182540 95520.5 197201 80369.2 63915.6 215865 97638 118227 104244 79623.2 42529.5 15285.6 118625 116831 96268.4
internal_count=10712895 4660995 6051900 2895895 3156005 2203104 2457891 2300022 2061082 1492744 807278 1681024 689168 516526 1794386 815298 979088 855983 641062 380058 142022 976218 991856 833559
is_linear=0
shrinkage=0.15


Tree=17
num_leaves=25
num_cat=0
split_feature=3 64 287 32 33 165 227 275 11 7 3 11 11 45 91 12 251 309 21 151 164 27 151 147
split_gain=4738.93 3224.59 2695.65 1914.15 1664.47 1410.19 1409.52 1022.89 1169.51 939.533 937.359 846.586 820.173 793.962 731.657 648.882 622.803 779.34 620.019 590.816 523.476 486.533 468.015 454.293
threshold=0.52777779102325451 0.7167949676513673 2017.5000000000002 0.76388889551162731 3.5499999523162846 1.0000000180025095e-35 0.67003855109214794 -0.70963227748870839 0.94444444775581371 0.11805555596947671 0.11805555596947671 0.78888890147209179 1.0000000180025095e-35 1.0000000180025095e-35 0.03213158808648587 0.52777779102325451 -0.5293959081172942 -0.25841057300567621 0.84523808956146251 0.61250001192092907 0.35416667163372045 0.88194444775581371 0.11805555596947671 1.0000000180025095e-35
decision_type=2 10 2 2 2 2 2 2 2 2 2 2 2 2 8 2 2 2 2 2 2 2 2 2
left_child=5 4 3 13 11 6 7 -1 10 -5 23 14 16 19 -2 -12 17 -6 -14 -3 -8 -19 -4 -9
right_child=1 2 22 9 12 -7 20 8 -10 -11 15 -13 18 -15 -16 -17 -18 21 -20 -21 -22 -23 -24 -25
leaf_value=0.014568751914498312 -0.013916075059804587 0.0080980189440079363 -0.02699105254717216 0.015905347467010812 0.11105535567126233 -0.047806719822988494 -0.041713380462481985 -0.040312616433197015 0.0096014422071908339 0.038682745445948179 -0.022081989659416011 0.013473741634192961 -0.007029667568254498 0.019720946477420172 -0.040641402494673066 -0.0021930042881096808 -0.0038980049421289066 0.01470982245357039 -0.050466704127457664 -0.018770205957390724 -0.11833421400862201 -0.0033360642357283545 -0.0011110189184203741 -0.01888032127066467
leaf_weight=32818.536487497389 59457.923932854086 51587.474010497332 18745.657531119883 59926.427723307163 1735.8751532025635 26950.475882787257 4889.3054572604597 44780.555674351752 42328.053914193064 127306.10591445491 62302.189021643251 15500.611235391349 71895.194321043789 78578.972080718726 37639.202389463782 90551.474280107766 97203.498673819005 130261.53268803284 8241.3422629497945 28636.17208809033 3402.3535064905882 45307.475830323994 97478.428989000618 44233.383748084307
leaf_count=247319 467162 428740 155581 508601 13757 219963 42131 409964 326062 1124005 496270 117573 583296 689450 355437 715066 796426 1094958 71407 243575 34358 369750 844551 357493
internal_value=0 0.00559719 0.0144796 0.0211181 -0.0031905 -0.0148333 -0.0121016 -0.0105048 -0.0134002 0.0313925 -0.0174256 -0.0190792 0.00185408 0.00900427 -0.024276 -0.0102996 0.00575157 0.0110417 -0.0114968 -0.00149271 -0.0731535 0.0100529 -0.00528518 -0.0296623
internal_weight=0 929502 462259 346035 467243 352256 325306 317014 284196 187233 241868 112598 354645 158803 97097.1 152854 274508 177305 80136.5 80223.6 8291.66 175569 116224 89013.9
internal_count=10712895 7864269 3994503 2994371 3869766 2848626 2628663 2552174 2304855 1632606 1978793 940172 2929594 1361765 822599 1211336 2274891 1478465 654703 672315 76489 1464708 1000132 767457
is_linear=0
shrinkage=0.15


Tree=18
num_leaves=25
num_cat=0
split_feature=184 167 151 225 287 151 280 0 1 0 1 168 0 34 151 25 275 168 34 147 0 168 0 200
split_gain=3781.69 2799.49 2413.95 1875.15 1719.18 1492.5 1678.78 1374.91 1466.09 1577.55 1139.16 1119.3 2477.05 860.01 853.101 833.718 806.143 690.629 1442.73 917.111 725.432 646.14 645.196 628.61
threshold=0.50819888710975658 0.6904762089252473 0.61250001192092907 0.07949248701334001 2016.5000000000002 1.0000000180025095e-35 -0.010176091454923151 11.500000000000002 12.500000000000002 7.5000000000000009 16.500000000000004 5.0555555820465097 11.500000000000002 2.9057564735412602 0.61250001192092907 0.11805555596947671 -1.188474655151367 4.2249999046325692 2.87434995174408 0.47222222387790685 12.500000000000002 5.0555555820465097 16.500000000000004 2016.2500000000002
decision_type=8 2 2 2 2 2 2 2 2 2 2 2 2 10 2 2 2 2 10 2 2 2 2 2
left_child=1 2 15 11 23 7 17 8 9 -2 -9 16 13 -13 -8 -1 -4 20 19 -19 -7 -5 -12 -3
right_child=5 4 3 21 -6 6 14 10 -10 -11 22 12 -14 -15 -16 -17 -18 18 -20 -21 -22 -23 -24 -25
leaf_value=-0.0088493298563069884 0.029803744873705997 0.0094187335449644107 0.023905884881334039 -0.036354887244043413 -0.005067537283753914 0.05418691620306914 0.016619397744300862 -0.083045829730474752 0.037443092595479628 -0.052389416223735184 -0.0015624207782297085 -0.09021056331170936 -0.017184378681006005 -0.016695430902580348 -0.00099584749358422016 0.010408676466787604 -0.013223629322374633 -0.015864081474175274 0.040076132525177818 0.047627397641332093 0.023908501904702013 -0.076186599532088645 -0.042602997489090869 0.03033294405061366
leaf_weight=129774.15040592477 9277.900492221117 85003.865156274289 14620.06042394042 20757.112076323479 174480.53784717247 33618.173351529986 116591.23912861198 6574.7169484421611 23662.979643501341 12114.436904743314 25412.748152911663 17201.240376122296 72721.39425977692 4521.5603062659502 131774.33729390055 82884.606631666422 131473.21021458507 28205.883528228849 31487.874130386859 6253.818354152143 37847.310495119542 16405.551151607186 13042.064980179071 52188.034518104047
leaf_count=1028020 44672 717115 115888 174302 1459781 231255 897277 70103 136569 92622 224022 94328 770800 19529 1031128 675761 1085635 222447 319244 54025 471356 169118 161153 447912
internal_value=0 -0.00630485 -0.0133701 -0.0225799 0.00481101 0.0105741 0.0146335 -0.00680998 0.0117159 -0.0167421 -0.0253465 -0.017735 -0.0304613 -0.0749085 0.00727335 -0.00134344 -0.00950795 0.0279365 0.0168665 -0.00434152 0.0381518 -0.0539387 -0.0154815 0.0173745
internal_weight=0 802031 490359 277700 311672 475863 385779 90084.8 45055.3 21392.3 45029.5 240537 94444.2 21722.8 248366 212659 146093 137413 65947.6 34459.7 71465.5 37162.7 38454.8 137192
internal_count=10714062 6758189 4133381 2429600 2624808 3955873 3226732 729141 273863 137294 455278 2086180 884657 113857 1928405 1703781 1201523 1298327 595716 276472 702611 343420 385175 1165027
is_linear=0
shrinkage=0.15


Tree=19
num_leaves=25
num_cat=0
split_feature=279 119 25 160 151 180 147 274 225 169 0 141 33 18 165 147 168 3 0 168 0 168 33 156
split_gain=3476.18 2010.62 1974.92 1994.3 1556.23 1460.91 1225.89 1075.58 1014.93 970.006 1310.38 1019.18 930.797 818.507 818.469 808.185 721.797 717.437 639.709 742.238 611.127 1300.52 799.133 588.263
threshold=0.017068965360522274 0.19103359431028369 1.0000000180025095e-35 0.21111111342906955 0.61250001192092907 0.15476191043853763 1.0000000180025095e-35 3.5000000000000004 0.54975908994674694 1.8971835970878603 11.500000000000002 0.94444444775581371 7.5499999523162851 0.38750000298023229 0.30952382087707525 1.0000000180025095e-35 3.5499999523162846 0.86607143282890331 12.500000000000002 6.3095238208770761 11.500000000000002 5.0555555820465097 7.6333332061767587 0.11805555596947671
decision_type=2 2 2 2 2 2 2 2 2 10 2 2 2 2 2 2 2 2 2 2 2 2 2 2
left_child=2 8 4 17 5 -1 7 16 -2 11 12 -6 -11 18 23 -5 -3 -4 19 -13 21 22 -18 -8
right_child=1 6 3 15 9 -7 14 -9 -10 10 -12 13 -14 -15 -16 -17 20 -19 -20 -21 -22 -23 -24 -25
leaf_value=-0.0042536964496160817 -0.022567905187309039 0.0015013415837978183 0.021108313942694676 -0.0026642449343620609 0.011043586199812406 0.018058188482878035 0.016958717646443754 -0.095985978100134359 -0.073713207127362096 -0.078680431173322685 -0.013785649674756451 -0.0057075829758028449 0.046452370216424226 -0.073389873756754237 -0.035443458512881068 0.016274260302449974 -0.023168939020710867 0.043831319557115188 0.01882338292145835 -0.072741817004612686 -0.011309645802414994 -0.071817486629372623 0.067835380348628099 -0.00018798200873555279
leaf_weight=147636.18309228122 104539.15568774194 53958.156408160925 93135.458467513323 116852.28837155178 42402.962794534862 119453.32045355067 59210.459759786725 3563.788692843169 9525.2529119104147 14277.486130177975 30849.533952441067 9910.1532342284918 1475.7514714151621 6211.7694827727973 12484.465737454593 89554.932759277523 22851.729467857629 47060.288459781557 9230.1933060884476 5946.547881282866 69770.023022849113 13777.74873136729 2399.0143077746034 187825.90694160014
leaf_count=1196915 885271 421462 768035 982302 351138 1007778 486026 35071 95548 83609 314709 78948 6558 52100 102647 749978 152463 455158 99609 31692 732687 73927 10692 1539739
internal_value=0 -0.00915228 0.00670412 0.0149299 -0.000655557 0.00572509 -0.00441479 -0.0144681 -0.0268389 -0.0148213 -0.0317596 -0.00411093 -0.0669581 -0.024642 0.0020281 0.0055527 -0.0126831 0.0287359 -0.0125716 -0.0308466 -0.0197178 -0.0347489 -0.0145228 0.00392179
internal_weight=0 539906 733997 346603 387394 267090 425841 166320 114064 120304 46602.8 73701.6 15753.2 31298.7 259521 206407 162757 140196 25086.9 15856.7 108799 39028.5 25250.7 247036
internal_count=10714062 4535533 6178529 2955473 3223056 2204693 3554714 1426302 980819 1018363 404876 613487 90167 262349 2128412 1732280 1391231 1223193 210249 110640 969769 237082 163155 2025765
is_linear=0
shrinkage=0.15


Tree=20
num_leaves=25
num_cat=0
split_feature=165 279 288 147 274 25 160 147 68 190 3 168 156 169 151 0 169 0 147 276 190 169 1 169
split_gain=2935.73 2596.61 1940.23 1635.33 1431.36 1373.57 1449.16 1313.34 1141.58 1138.99 964.135 795.678 758.756 746.668 901.543 751.293 797.057 720.188 661.783 651.546 572.523 619.095 568.527 705.94
threshold=1.0000000180025095e-35 0.032272787764668472 99.999370574951186 1.0000000180025095e-35 2.5000000000000004 1.0000000180025095e-35 1.0000000180025095e-35 1.0000000180025095e-35 99.999233245849624 1.0000000180025095e-35 0.81666666269302379 3.6333333253860478 1.0000000180025095e-35 1.8971835970878603 0.47222222387790685 11.500000000000002 3.6537644863128667 12.500000000000002 1.0000000180025095e-35 0.0056405814830213794 1.0000000180025095e-35 1.8971835970878603 19.500000000000004 2.8668862581253056
decision_type=2 2 2 2 2 2 2 2 2 8 2 2 2 8 2 2 10 2 2 2 10 8 2 8
left_child=1 2 5 4 9 7 -7 11 -4 12 -9 -1 -3 -12 -15 16 -16 -13 -8 -14 21 -5 -23 -24
right_child=-2 3 8 20 -6 6 18 10 -10 -11 13 17 19 14 15 -17 -18 -19 -20 -21 -22 22 23 -25
leaf_value=0.0071012203706471719 -0.033887917618086523 -0.0120827757567978 -0.024375391005121948 0.0097763285018757345 -0.068925398507272362 0.031295016448793928 0.001865948532252268 -0.0045347520955852216 0.0056589630784774593 0.002338167822614699 0.027398039237548126 -0.038424125433613884 -0.020367303736258262 0.017902771298668123 -0.025959251117649764 0.0039814191811985925 -0.13467262323095783 -0.0044840882445856458 0.019382005941637481 -0.053286722338068998 0.01451351804452463 -0.021070710010303327 0.014141729973614377 -0.011021418794941069
leaf_weight=30787.905857540667 55095.789543163031 62039.44233649224 64068.030838295817 59669.211448654532 11752.799476079643 108713.90935534239 108416.17691412196 80164.954996794462 51252.654493041337 57944.369010213763 69372.190936479717 30669.105484019965 27807.220440734178 64550.326494276524 10917.556847415864 24272.821755234152 1762.3701023310423 25986.271396968514 87862.906829103827 26343.093933962286 49972.512476950884 51696.786331605166 39181.85324363783 69725.97613472119
leaf_count=242858 458767 512311 543215 467955 116707 968874 913739 642349 414119 478045 608606 199775 232293 546969 62207 239170 8104 282988 736010 288556 403756 399774 337943 608434
internal_value=0 0.00151351 0.00689003 -0.00743057 -0.01826 0.010101 0.0174019 0.00352254 -0.011027 -0.0148404 0.00903699 -0.0123089 -0.0234074 0.0154041 0.00720683 -0.0114772 -0.0410692 -0.0228568 0.00970688 -0.036382 1.83343e-05 -0.00327012 -0.00811725 -0.00196845
internal_weight=0 1.21493e+06 758797 456133 185887 643476 304993 338484 115321 174134 251040 87443.3 116190 170875 101503 36952.7 12679.9 56655.4 196279 54150.3 270246 220274 160605 108908
internal_count=10713524 10254757 6408983 3845774 1627912 5451649 2618623 2833026 957334 1511205 2107405 725621 1033160 1465056 856450 309481 70311 482763 1649749 520849 2217862 1814106 1346151 946377
is_linear=0
shrinkage=0.15


Tree=21
num_leaves=25
num_cat=0
split_feature=192 167 249 288 160 225 288 201 151 286 286 168 286 27 288 169 164 296 288 286 64 274 66 273
split_gain=2495.01 1881.97 1459.4 1141.76 950.517 950.452 1060.63 956.983 666.35 664.964 663.355 636.639 531.978 496.475 664.36 490.948 479.801 622.313 472.564 455.107 447.702 429.673 375.895 358.559
threshold=15.944444656372072 0.78888890147209179 -0.66522160172462452 99.999530792236342 0.35416667163372045 0.07949248701334001 99.991359710693374 99.969333648681655 0.84523808956146251 69.393447875976577 219.89865875244143 5.0555555820465097 69.393447875976577 0.73214286565780651 99.999874114990249 1.6444820165634157 1.0000000180025095e-35 0.24125768989324572 99.999874114990249 69.393447875976577 1.0068968534469607 -4.4467122736394463e-16 99.999790191650405 0.0083031821995973604
decision_type=2 2 2 2 2 2 2 2 2 2 2 2 2 2 2 8 2 2 2 2 10 2 2 2
left_child=1 2 12 10 21 6 7 20 15 -8 19 -10 -1 23 -15 -6 -7 -18 -11 -3 -2 -4 -20 -14
right_child=5 3 4 -5 8 16 9 -9 11 18 -12 -13 13 14 -16 -17 17 -19 22 -21 -22 -23 -24 -25
leaf_value=0.077939113268435695 0.0015178850429673988 0.069574073614912302 0.0087556971009439388 -0.021090315792961816 -0.002741019934753034 -0.0041737838688781633 0.10089063309923001 0.02865011187720707 -0.024495611057121083 0.0049534416036696094 0.015997588427697839 -0.057216305127793174 0.0085713899172155435 -0.0081340265488052486 -0.065425314012327526 -0.025348621563461269 -0.012455853590080416 -0.091133775082766003 -0.0236433423413385 -0.00030598110020534596 0.018112211150884711 -0.013019149472001645 0.012571992166629147 -0.010560849342951028
leaf_weight=1888.74783629179 76731.626637250185 2127.7824254520237 26616.894313775003 36177.837421141565 30088.719245385379 41983.367965510115 1536.3144781179726 96723.644765313715 29303.470844279975 177019.135169819 112904.41836055368 24620.18232325092 88719.295859530568 63372.778846662492 4906.7862586937845 76722.352164912969 6218.4549518227577 3555.153683161363 25217.875015038997 144741.40532968193 69908.853467848152 87151.508740115911 8664.1150989420712 29325.058246556669
leaf_count=14814 634949 17851 216982 301022 242273 354800 11980 830199 259967 1488132 966989 271805 751809 520663 39980 635503 51882 35503 209145 1233533 596475 704008 69960 253300
internal_value=0 -0.0054661 -0.0114409 0.00387546 -0.0184164 0.0081206 0.0103079 0.0170683 -0.0258423 0.00256331 0.00735236 -0.0394351 -0.00126743 -0.00207034 -0.0122512 -0.0189801 -0.0111421 -0.041075 0.00184705 0.000706413 0.009429 -0.00792478 -0.0143826 0.00381848
internal_weight=0 758667 462716 295951 274503 507559 455802 243364 160735 212437 259774 53923.7 188213 186324 68279.6 106811 51757 9773.61 210901 146869 146640 113768 33882 118044
internal_count=10713524 6430499 3911104 2519395 2330538 4283025 3840840 2061623 1409548 1779217 2218373 531772 1580566 1565752 560643 877776 442185 87385 1767237 1251384 1231424 920990 279105 1005109
is_linear=0
shrinkage=0.15


Tree=22
num_leaves=25
num_cat=0
split_feature=33 0 169 190 147 34 11 0 1 25 168 0 1 168 0 1 151 160 9 12 21 35 169 275
split_gain=2707.03 2096.37 2922.95 1910.33 2292.35 1697.26 1666.75 1426.38 1361.9 1341.43 1229 1022.36 1477.05 985.559 949.87 1173.51 914.219 1092.38 892.477 928.126 1063.05 877.121 872.974 839.008
threshold=5.5277776718139657 14.500000000000002 2.9057564735412602 1.0000000180025095e-35 0.21111111342906955 1.8971835970878603 0.86607143282890331 11.500000000000002 19.500000000000004 0.11805555596947671 6.8166668415069589 9.5000000000000018 12.500000000000002 4.2249999046325692 10.500000000000002 14.500000000000002 1.0000000180025095e-35 0.5634920895099641 0.81666666269302379 0.94444444775581371 0.86607143282890331 5.7500000000000009 1.1454972028732302 -0.70963227748870839
decision_type=2 2 10 8 2 10 2 2 2 2 2 2 2 2 2 2 2 2 2 2 2 2 10 2
left_child=3 2 7 4 6 -4 9 18 -3 -1 11 -6 -13 -7 -5 -16 -10 -18 19 20 -2 -15 -11 -22
right_child=1 8 5 14 10 13 -8 -9 16 22 -12 12 -14 21 15 -17 17 -19 -20 -21 23 -23 -24 -25
leaf_value=-0.040400885309408587 0.028296637186048711 -0.044640058817322421 -0.035557534400308941 0.016244804936916421 0.0081888091334586192 0.047501843978498333 0.0075335170166229053 0.016312027043881093 -0.029489522619516009 0.0082900999433561523 0.027344016485410214 -0.051117622614051138 -0.0062080004160323084 0.030417010831980909 -0.036401462657328389 0.0031820213575223855 0.014637109489731757 -0.011067767096374552 0.090969305738884704 0.050946932894194087 -0.14150343744793684 -0.015184831189220389 -0.021778020661698084 -0.0025153035108671736
leaf_weight=81720.62507676892 26188.03428850323 16271.105234958231 28878.290042754263 107495.5851257816 92946.536433704197 11901.151211448014 42041.606030661613 112909.39232780039 19987.458040185273 26299.267064232379 31390.52953421697 18824.716322753578 132167.83875756338 13731.672594480217 19806.808244494721 112947.58734612353 95089.774430777878 61100.309729423374 7666.7090327739716 44941.762118130922 1529.3975420892239 30724.746562592685 124924.76586453617 2706.6745176464319
leaf_count=794583 135262 194710 182659 643246 510644 77496 327026 912948 235475 195679 270074 178190 1168781 85703 207382 1051174 1212704 735327 40200 259858 9168 181617 1086726 15771
internal_value=0 0.008944 0.0172001 -0.00539628 -0.0102682 -0.00598795 -0.0199554 0.027287 -0.00311859 -0.0249165 -0.000593137 -0.00418814 -0.011807 0.00916386 0.00576337 -0.00272379 0.00071618 0.00458157 0.042211 0.037251 0.0170197 -0.00109936 -0.0165489 -0.0526958
internal_weight=0 473626 281178 790566 550316 85235.9 274986 195942 192449 232945 275330 243939 150993 56357.6 240250 132754 176178 156190 83032.6 75365.9 30424.1 44456.4 151224 4236.07
internal_count=10712403 4278898 1900682 6433505 4531703 527475 2404014 1373207 2378216 2076988 2127689 1857615 1346971 344816 1901802 1258556 2183506 1948031 460259 420059 160201 267320 1282405 24939
is_linear=0
shrinkage=0.15


Tree=23
num_leaves=25
num_cat=0
split_feature=3 46 33 0 169 147 12 169 0 12 168 0 21 151 0 1 1 190 0 1 0 1 151 160
split_gain=2131.43 1767.39 1318.67 1400.65 1622.61 1396.47 1211.89 1117.27 1635.04 1075.72 1033.98 918.684 853.283 799.787 792.808 1168.9 780.635 671.424 647.728 1513.89 629.498 812.918 620.274 625.111
threshold=0.35416667163372045 1.0000000180025095e-35 6.0625000000000009 14.500000000000002 2.9057564735412602 0.38750000298023229 0.86607143282890331 1.8971835970878603 12.500000000000002 1.0000000180025095e-35 5.5277776718139657 11.500000000000002 0.81666666269302379 0.73214286565780651 7.5000000000000009 10.500000000000002 19.500000000000004 1.0000000180025095e-35 10.500000000000002 17.500000000000004 14.500000000000002 14.500000000000002 0.78888890147209179 0.78888890147209179
decision_type=2 10 2 2 10 2 2 10 2 2 2 2 2 2 2 2 2 10 2 2 2 2 2 2
left_child=9 2 5 4 11 7 -3 -2 10 -1 12 -4 -9 -6 -7 -16 -10 -11 -17 20 21 -20 23 -12
right_child=1 6 3 -5 13 14 -8 8 16 17 22 -13 -14 -15 15 18 -18 -19 19 -21 -22 -23 -24 -25
leaf_value=0.0037480128680736123 -0.0032823159144261 0.0022828285775406284 0.054501247165386575 -0.0071940406760821838 0.0065799096644423424 0.030909831788075031 0.01846704949756971 -0.013860135290061863 -0.034701759904779125 -0.024936574535784718 -0.046782864837575003 0.019028838516777242 -0.055651548682662845 -0.053753631315329807 -0.056187031858456603 0.019768268837929513 0.0028767940034149135 0.0042114590554932123 -0.047990412993348185 0.00759033914515284 -0.085866356824909632 0.0066182460456413036 -0.091407901852868123 0.17202746283638568
leaf_weight=55056.740968765691 150874.98956369236 210523.55398476683 27423.667745307088 64026.998867619783 15028.581296823919 21948.622473821044 205938.40327035077 39575.242624677718 15933.776483073831 126317.04447779991 12649.19775788486 40968.068767547607 15220.297904048115 7366.8194789513946 7781.6850985512137 40255.047866150737 56692.446228120476 20694.25042674318 13376.174303926528 86612.727821562439 4184.1505361273885 11327.584017723799 10018.353877492249 300.75262863188982
leaf_count=444541 1199976 1746268 145542 779297 89687 103944 1871437 257425 195107 1080230 64424 320896 103326 47017 59116 247882 642342 169610 136282 786824 48803 103163 67645 1619
internal_value=0 0.00267659 -0.00226284 0.00979548 0.0217772 -0.00609806 0.0102858 -0.0124023 -0.0215518 -0.0141359 -0.0366666 0.0332525 -0.0254683 -0.0132664 0.0041413 0.000548655 -0.00536773 -0.0208335 0.00338322 -0.00232741 -0.0320631 -0.0229503 -0.0633823 -0.0417012
internal_weight=0 1.05803e+06 641565 154814 90787.1 486751 416462 301265 150390 202068 77763.8 68391.7 54795.5 22395.4 185486 163537 72626.2 147011 155756 115501 28887.9 24703.8 22968.3 12950
internal_count=10712403 9018022 5400317 1382439 603142 4017878 3617705 2531864 1331888 1694381 494439 466438 360751 136704 1486014 1382070 837449 1249840 1322954 1075072 288248 239445 133688 66043
is_linear=0
shrinkage=0.15


Tree=24
num_leaves=25
num_cat=0
split_feature=194 165 287 167 309 98 288 203 288 167 65 309 231 7 8 160 287 66 102 227 275 67 164 203
split_gain=1881.88 1196.43 937.852 1220.55 949.36 886.115 794.06 682.552 1072.96 629.423 613.642 592.402 486.428 485.316 514.403 411.665 408.775 367.298 362.584 353.928 336.761 327.751 317.585 297.562
threshold=14.750000000000002 1.0000000180025095e-35 2017.5000000000002 0.18333333730697635 -0.25841057300567621 -10.087249755859373 99.999843597412124 99.987827301025405 99.98450088500978 0.88194444775581371 2016.2500000000002 -0.25841057300567621 -17.614929199218746 0.18333333730697635 0.63333335518836986 0.5634920895099641 2015.5000000000002 99.999790191650405 0.47688856720924383 0.3763899058103562 -0.70963227748870839 0.0041939364746212968 0.38750000298023229 99.997425079345717
decision_type=2 2 2 2 2 2 2 2 2 2 2 2 2 2 2 2 2 2 2 2 2 10 2 2
left_child=1 2 3 12 -4 19 7 9 21 20 -6 -10 -1 -5 -15 -14 -11 -8 23 -2 -7 -9 -21 -12
right_child=5 -3 4 13 10 6 17 8 11 16 18 -13 15 14 -16 -17 -18 -19 -20 22 -22 -23 -24 -25
leaf_value=-0.069416653316946242 -0.0073011976837445147 -0.033433598906730207 0.077049728253690233 0.00085316207459221584 -0.029597198302570651 0.012629885520785002 -0.019154999200759821 0.014416865238119806 0.10163914418259797 0.023859741248918188 -0.012108140089224598 0.0082455960221866163 -0.001493591491363265 -0.010345458811763774 0.020552306386261449 -0.015845041839856949 0.0050262558075301065 0.0116468867401128 -0.02309195979191624 -0.019823616415916127 -0.0053070737666590095 0.037545641915337678 -0.08395264893967827 0.00055119645933689263
leaf_weight=2822.011183893308 45694.14271829091 32728.305240191519 2706.0067673455924 83072.293336864561 38697.747396638617 29126.947153925896 33325.800551977009 19013.546038594097 1541.8977507203817 45820.027272138745 88146.126184623688 171370.7797117494 124180.61955710128 14061.044805068523 87988.168315835297 70503.793995937333 59735.170800790191 11792.96339385584 34026.142518747598 4991.0704854633659 123018.12671206519 50135.048697736114 2665.4533919524401 79417.146285090595
leaf_count=28809 382256 277084 21991 699811 335434 241131 277669 165622 12091 398015 741414 1447426 1033453 120561 776924 646809 512972 94976 282736 44015 1040997 438207 28805 664222
internal_value=0 -0.0054759 -0.00401334 0.000614855 -0.0113011 0.00614713 0.00795356 0.0096741 0.0153938 0.00430152 -0.0122961 0.00907841 -0.00758712 0.00936556 0.016295 -0.00669088 0.0132016 -0.0111041 -0.00897488 -0.0123023 -0.00187319 0.031186 -0.0421488 -0.00610821
internal_weight=0 658349 625621 382628 242993 598231 544880 499762 242061 257700 240287 172913 197506 185122 102049 194684 105555 45118.8 201589 53350.7 152145 69148.6 7656.52 167563
internal_count=10713430 5629248 5352164 3306367 2045797 5084182 4629106 4256461 2063346 2193115 2023806 1459517 1709071 1597296 897485 1680262 910987 372645 1688372 455076 1282128 603829 72820 1405636
is_linear=0
shrinkage=0.15


Tree=25
num_leaves=25
num_cat=0
split_feature=33 181 169 151 280 160 151 169 33 254 1 147 169 151 34 168 34 147 30 288 169 288 203 68
split_gain=1617.54 1567.32 1038.48 999.552 1314.45 937.798 848.397 830.684 778.954 734.859 601.24 562.451 576.701 474.898 473.183 772.89 447.708 411.08 410.527 395.862 389.691 381.789 385.502 373.264
threshold=5.5277776718139657 0.42460343241691595 2.140783548355103 1.0000000180025095e-35 -0.017294870689511296 0.35416667163372045 0.41428571939468389 3.052320241928101 2.5833333730697636 0.11202406138181688 19.500000000000004 1.0000000180025095e-35 2.2267118692398076 0.15476191043853763 2.8606511354446416 6.2249999046325692 2.9211813211441044 0.18333333730697635 0.15476191043853763 99.999782562255874 4.8293492794036874 99.979412078857436 99.958568572998061 99.986568450927749
decision_type=2 8 10 2 2 2 2 10 2 2 2 2 8 2 10 2 10 2 2 2 10 2 2 2
left_child=1 2 8 -2 -5 -4 -6 21 -1 -7 18 16 -13 -10 15 -15 -12 -17 19 -3 -11 22 -8 -23
right_child=3 10 5 4 6 9 7 -9 13 20 11 12 -14 14 -16 17 -18 -19 -20 -21 -22 23 -24 -25
leaf_value=-0.021250342690694844 -0.014185691543543684 0.0018198098671588299 -0.0067388292405027011 0.03158504449850251 0.020046996099938708 -0.055067216196510317 0.0059563381070612568 -0.010535581983205306 -0.020077121942126325 -0.020260089994166768 -0.014487213420640289 0.039285963946135184 0.010957742039147889 0.007617559808122472 0.027406528073447192 -0.038506576403027452 0.016146350444867816 0.012525297392492567 -0.029316022544716335 -0.018268578705337254 -0.077841634961880388 -0.011211063324998436 0.025083337576726834 0.0071831204002302156
leaf_weight=39447.543511848897 45226.738151162863 219321.23588770814 95072.250771459192 52109.435733914375 78100.820366002619 17554.106472650543 54014.029881313443 80418.211743742228 18389.604990780354 98107.445167677477 27416.481048872694 21781.802501961589 62753.934283968061 91164.333568282425 19211.850167192519 14163.085715953261 17641.962504640222 4740.3206688538194 11406.904795475304 24541.502072509378 2717.7092192992568 35605.040998250246 42257.920472919941 81961.783830795437
leaf_count=352263 414973 1629971 756773 595423 704805 190360 466091 700862 135024 934550 250372 199491 546782 645054 169937 120206 174023 39032 85917 180728 22566 314709 376280 707238
internal_value=0 -0.00411448 -0.0106825 0.00701309 0.00927181 -0.0178333 0.00614919 0.00246048 -0.00252517 -0.0267435 0.00272149 0.0110424 0.0182569 0.00247697 0.00568521 0.00189385 -0.0024931 -0.0257095 -0.0015028 -0.000201816 -0.0218122 0.0073479 0.014352 0.00161245
internal_weight=0 785432 400568 469694 424467 213452 372358 294257 187117 118379 384864 129594 84535.7 147669 129280 110068 45058.4 18903.4 255270 243863 100825 213839 96272 117567
internal_count=10713430 6433049 3365765 4280381 3865408 1904249 3269985 2565180 1461516 1147476 3067284 1170668 746273 1109253 974229 804292 424395 159238 1896616 1810699 957116 1864318 842371 1021947
is_linear=0
shrinkage=0.15


Tree=26
num_leaves=25
num_cat=0
split_feature=274 247 190 32 287 151 18 201 153 288 141 201 288 11 11 254 11 33 288 153 147 36 144 153
split_gain=1532.96 1507.39 1454.91 1359.64 1364.56 1229.6 1311.08 1215.66 823.361 649.506 576.647 527.993 475.214 451.984 443.554 402.614 399.82 493.319 393.055 382.738 368.589 333.872 329.973 435.709
threshold=1.5000000000000002 0.018736897967755798 1.0000000180025095e-35 0.58571431040763866 2016.5000000000002 1.0000000180025095e-35 0.41428571939468389 99.957721710205092 0.30952382087707525 99.975452423095717 0.52777779102325451 99.995494842529311 99.999767303466811 1.0000000180025095e-35 1.0000000180025095e-35 0.22552178055047992 0.86607143282890331 4.5857143402099618 99.99908828735353 0.41428571939468389 1.0000000180025095e-35 10.500000000000002 1.0000000180025095e-35 1.0000000180025095e-35
decision_type=2 10 8 2 2 2 2 2 2 2 2 2 2 2 2 2 2 2 2 2 2 2 2 2
left_child=2 -2 3 7 15 13 14 10 22 -9 -1 -11 -6 21 19 -5 17 -12 -13 -7 -8 -4 -3 -24
right_child=1 8 5 4 12 6 20 9 -10 11 16 18 -14 -15 -16 -17 -18 -19 -20 -21 -22 -23 23 -25
leaf_value=-0.0075221024244231313 -0.11308857666618871 -0.016656455646546636 -0.034226186530751268 0.0025075082915459114 -0.0004832334725206267 0.021842119023632946 -0.011159675373932356 0.012994293154674069 -0.079385858452082819 -0.012586064821069673 -0.038564408975999685 0.01033669085192683 -0.022333635261810585 -0.025485284636321309 0.010343066442647765 0.019999125941627637 0.0032183204224117321 -0.017077498971297185 -0.0063713544461456943 0.045338473485894148 0.017213213841414842 0.0031590918747491457 0.059909919497948966 -0.0098968133270027989
leaf_weight=96390.993603646755 3873.2423417847604 48027.877495354041 5895.9976570904255 39795.22057024762 153305.94147233665 120188.60282398015 47896.71218547225 60179.538759959862 4363.4548126086593 101484.45344268531 43001.445385493338 62986.246298708022 26226.251936841756 20770.904769875109 71592.509774256498 115662.72268139943 11329.988620262593 54526.65241195634 63738.190253764391 17924.871559169143 13124.885714318603 60799.703884936869 3125.9681236539036 5644.4129476696253
leaf_count=782376 39118 436661 37200 344954 1311014 1063249 391549 525469 35029 866724 417755 540303 219705 163024 584582 1010248 92545 468327 529340 163139 106270 512801 24424 47655
internal_value=0 -0.0223415 0.00131054 -0.00214246 0.00523338 0.00929853 0.0142939 -0.00714782 -0.0165946 -0.000868026 -0.0159713 -0.00452357 -0.00367516 -0.00616324 0.0199248 0.0155215 -0.0234529 -0.0265514 0.0019331 0.0248916 -0.00505707 -0.000145821 -0.0117708 0.0149839
internal_weight=0 65035 1.18682e+06 828628 334990 358194 270728 493638 61161.7 288388 205249 228209 179532 87466.6 209706 155458 108858 97528.1 126724 138113 61021.6 66695.7 56798.3 8770.38
